<?xml version="1.0"?>
<opencv_storage>
<my_svm type_id="opencv-ml-svm">
  <svm_type>C_SVC</svm_type>
  <kernel><type>LINEAR</type></kernel>
  <C>1.</C>
  <term_criteria><epsilon>1.1920928955078125e-007</epsilon>
    <iterations>1000</iterations></term_criteria>
  <var_all>10000</var_all>
  <var_count>10000</var_count>
  <class_count>2</class_count>
  <class_labels type_id="opencv-matrix">
    <rows>1</rows>
    <cols>2</cols>
    <dt>i</dt>
    <data>
      0 1</data></class_labels>
  <sv_total>1</sv_total>
  <support_vectors>
    <_>
      -1.98015049e-002 -1.68035086e-002 -1.27452444e-002
      -6.83814334e-003 -3.70877632e-003 -1.04482053e-003 8.79763393e-005
      -6.53490424e-004 -2.02909554e-003 -2.47200346e-003
      -3.69998114e-003 -5.76357823e-003 -7.52271106e-003
      -7.32081570e-003 -8.19781329e-003 -8.72209948e-003
      -9.82938707e-003 -5.81330713e-003 -2.16279970e-003 1.10399583e-003
      1.72921584e-003 2.75747385e-003 3.20851849e-003 2.16768868e-003
      1.33723568e-003 6.01462496e-004 2.70811375e-003 3.56437615e-003
      5.53176505e-003 6.44468190e-003 5.87799447e-003 4.82925726e-003
      4.53741290e-003 3.57280066e-003 2.62940908e-003 1.22865324e-003
      1.50575966e-003 2.65318854e-003 4.55711177e-003 6.24208432e-003
      5.02643641e-003 4.87852097e-003 5.22528356e-003 5.17013669e-003
      4.89451457e-003 5.07641025e-003 4.67154291e-003 5.54857450e-003
      6.39919518e-003 7.20183877e-003 8.18054471e-003 8.88410117e-003
      9.71184950e-003 1.03509240e-002 1.14106117e-002 1.16172638e-002
      1.08493930e-002 9.11642332e-003 8.01361259e-003 7.83286802e-003
      7.09504960e-003 5.23860194e-003 1.18792360e-003 -1.78479392e-003
      -2.69372924e-003 -2.64938362e-003 -2.06847629e-003
      -3.70673661e-004 -1.29444044e-004 -8.08554294e-004
      -8.47304182e-004 -2.19594594e-003 -3.38047789e-003
      -5.86838135e-003 -5.22763329e-003 -5.05859312e-003
      -4.35564434e-003 -3.12991184e-003 -4.78329253e-004 7.82352639e-004
      1.54953275e-003 5.32855665e-005 -1.28933846e-003 -2.74530821e-003
      -3.02187726e-003 -2.29365355e-003 -4.61177464e-004
      -5.98603103e-004 -2.40181995e-004 -1.89128844e-003
      -1.73950882e-003 -2.63219629e-003 -3.34280892e-003
      -2.55208183e-003 -5.12835046e-004 -1.85986946e-003
      -2.23047379e-003 -1.53142947e-003 -3.07352951e-004 5.34097839e-004
      -1.86787061e-002 -1.59222018e-002 -1.05361789e-002
      -6.00585714e-003 -2.42247549e-003 1.64739031e-004 1.11433945e-003
      4.82000090e-004 -1.06691092e-003 -1.44317024e-003 -3.49686178e-003
      -5.15709911e-003 -5.86685445e-003 -6.26169192e-003
      -5.13292989e-003 -8.02460592e-003 -8.33999552e-003
      -4.56872955e-003 -1.60398288e-003 8.52178142e-004 6.81459322e-004
      4.39068390e-004 -9.38503217e-005 -1.24584127e-004 -7.32400222e-004
      -1.65831763e-003 -4.32462140e-004 6.23199856e-004 2.34947633e-003
      3.15072481e-003 3.37850535e-003 3.27962195e-003 3.30575975e-003
      1.89060054e-003 3.74743686e-004 -4.44144767e-004 -6.96243835e-004
      1.35422932e-004 2.01806938e-003 4.03440138e-003 2.18684156e-003
      4.86732111e-004 -9.07555048e-004 -1.20360788e-003 -4.68275335e-004
      1.47321832e-003 2.94602499e-003 4.21087677e-003 4.83550644e-003
      6.55356795e-003 6.63918117e-003 8.01192503e-003 9.14149266e-003
      9.84249450e-003 9.56225116e-003 9.70192626e-003 8.34120251e-003
      6.61727833e-003 6.03636401e-003 5.95892686e-003 5.03520900e-003
      2.10278668e-003 -1.54634810e-003 -3.65175446e-003 -3.79578210e-003
      -3.34652793e-003 -2.76188948e-003 -2.16166931e-003
      -1.47900498e-003 -1.52336364e-003 -1.80363993e-003
      -2.74409517e-003 -4.47632605e-003 -6.52575353e-003
      -6.54905103e-003 -6.18060306e-003 -5.60203660e-003
      -4.48186463e-003 -1.90017885e-003 -4.90854960e-004 2.09556078e-004
      -2.64905579e-003 -3.87252052e-003 -5.72074158e-003
      -6.12683408e-003 -5.23415441e-003 -3.38984746e-003
      -2.70066783e-003 -3.21042514e-003 -4.16996982e-003
      -3.25866858e-003 -5.39847929e-003 -4.80290782e-003
      -4.35022637e-003 -1.39042654e-003 -1.39244914e-003
      -2.15188670e-003 -8.91843694e-004 -1.51618719e-004 6.51949842e-004
      -1.64311063e-002 -1.27251549e-002 -4.60903114e-003
      -1.83131918e-003 -4.05646279e-004 4.00717872e-005 2.52276775e-004
      2.53667962e-003 1.17485528e-003 3.47293308e-003 1.62552763e-003
      -1.89670420e-003 -1.17282814e-003 -1.73931511e-003
      -1.72800419e-003 -2.70192767e-003 -3.36038298e-003 1.98108843e-004
      1.58797705e-003 5.06217172e-003 2.97285151e-003 3.01497872e-004
      1.72302674e-003 4.52425797e-003 3.44146881e-003 1.89885416e-003
      3.14312964e-003 2.43500853e-003 3.57742095e-003 3.34410253e-003
      4.70225466e-003 5.52885514e-003 4.95529035e-003 4.68009477e-003
      3.05312569e-003 1.47406175e-003 1.06072403e-003 1.61356525e-003
      3.04299360e-003 3.96415871e-003 2.45633745e-003 5.02230367e-004
      -4.75290261e-004 -1.22886838e-003 -1.51790737e-003 2.80178298e-004
      2.92275683e-003 3.49518354e-003 4.35847649e-003 6.68240804e-003
      8.68275110e-003 9.38280020e-003 9.79641080e-003 1.08082043e-002
      1.10281864e-002 1.00230593e-002 7.82858022e-003 6.42796140e-003
      5.95539995e-003 5.61131723e-003 3.24372994e-003 1.79750263e-004
      -2.01306050e-003 -2.62558903e-003 -2.53441371e-003
      -1.42032711e-003 -3.54842778e-004 -1.88351740e-004
      -1.03202583e-004 -7.12459965e-004 -5.47487289e-004
      -1.53850717e-003 -3.06914118e-003 -6.05016435e-003
      -6.18826132e-003 -5.70441457e-003 -4.85760113e-003
      -2.96258111e-003 -5.33373313e-005 4.95252782e-004 9.51985712e-004
      -2.25878530e-003 -2.84531456e-003 -4.20432724e-003
      -4.42084204e-003 -4.81271744e-003 -4.25138418e-003
      -3.32068116e-003 -3.68413981e-003 -4.72331932e-003
      -4.06192476e-003 -5.07285865e-003 -5.23740007e-003
      -4.07547690e-003 -1.08988502e-003 1.89609520e-004 -1.11572538e-003
      -1.49609323e-003 -8.31213605e-004 -9.02924439e-005
      -1.37246335e-002 -8.53705406e-003 -1.88717991e-003 3.84558662e-004
      9.01752617e-004 2.65715498e-004 -1.43755227e-003 6.17508369e-004
      -1.20698096e-004 3.60518298e-003 3.12930322e-003 -1.41932582e-003
      1.81893772e-003 5.70243516e-004 1.75267225e-003 1.59035530e-003
      8.05707299e-004 2.60507688e-003 5.04225632e-003 6.18362986e-003
      3.90811218e-003 4.51849913e-003 5.45054115e-003 7.29467487e-003
      5.60534466e-003 6.45940704e-003 4.02244553e-003 2.32243538e-003
      2.80711404e-003 3.47227813e-003 3.05030728e-003 3.73654114e-003
      4.64889873e-003 2.58764927e-003 2.63101561e-003 1.04351365e-003
      8.01989983e-004 2.54057837e-003 3.07028927e-003 2.34683789e-003
      1.10204902e-003 -6.31153744e-005 -1.19756861e-003 -1.59818621e-003
      -1.42016064e-003 5.89215255e-004 2.08705338e-003 4.08008276e-003
      4.83817887e-003 7.27805821e-003 7.44745461e-003 8.22785869e-003
      8.59460607e-003 9.51650273e-003 1.00627169e-002 9.13465116e-003
      6.46272954e-003 4.91877692e-003 4.06250078e-003 3.28836893e-003
      1.33690331e-003 -2.57302658e-004 -1.97418523e-003 -1.80486322e-003
      -2.15124269e-003 -9.37877572e-004 8.61166161e-004 6.32544034e-005
      -7.24166224e-004 -3.10973410e-004 -8.01952556e-004
      -1.92437635e-003 -3.75324953e-003 -6.29176060e-003
      -5.57072833e-003 -4.77817142e-003 -3.64124589e-003
      -6.32169889e-004 2.50107609e-003 2.24122033e-003 1.48373027e-003
      -1.47692184e-003 -2.30354536e-003 -3.50442855e-003
      -3.14743537e-003 -4.65848390e-003 -4.57278406e-003
      -4.43538837e-003 -5.26735140e-003 -5.81582915e-003
      -5.09075867e-003 -5.86790778e-003 -5.48986066e-003
      -3.93933337e-003 -1.70301250e-003 -2.05446282e-004
      -1.43457623e-003 -1.99171179e-003 -1.55928114e-003
      -6.73967472e-004 -1.01901256e-002 -5.84772369e-003
      -1.56326790e-003 5.15723543e-004 -3.23924585e-004 -5.35621657e-004
      -3.74902086e-003 -4.55318671e-003 -5.41855302e-003
      -3.39577463e-003 -8.54471931e-004 -1.14837254e-003
      -1.83004490e-003 -2.04014056e-003 -4.74584958e-004
      -6.70422451e-004 -1.96842151e-003 2.95805454e-004 3.56497592e-003
      3.37536447e-003 2.07519485e-003 2.82496167e-003 4.27259691e-003
      5.10015199e-003 4.03484609e-003 3.53278103e-003 1.31115329e-003
      -1.16378581e-003 1.29931606e-003 1.99175137e-003 2.00020778e-003
      1.29677705e-003 1.03061902e-003 7.89046637e-004 -7.63988413e-004
      5.77786559e-005 -6.12549193e-004 1.05123187e-003 2.18072836e-003
      1.58527412e-003 -5.42411988e-004 -1.01987319e-003 -1.77300314e-003
      -1.53491809e-003 -1.33702881e-003 4.82625299e-004 2.70560477e-003
      5.33856358e-003 5.71671547e-003 7.43125146e-003 7.53327413e-003
      8.29558726e-003 8.66569579e-003 9.65745468e-003 9.31943115e-003
      9.06198099e-003 7.14339269e-003 5.50056295e-003 4.55735344e-003
      3.18969111e-003 8.55623279e-004 -1.79315393e-003 -2.12322851e-003
      -2.66743056e-003 -1.88123726e-003 6.10994000e-004 1.99960283e-004
      7.74860964e-005 -5.90475800e-004 -6.74656330e-005 7.49197861e-005
      -1.81173522e-003 -3.43988510e-003 -4.08324506e-003
      -3.51315411e-003 -3.44328326e-003 -3.73148755e-003
      -2.13010772e-003 6.21298270e-004 1.07986962e-005 -2.99310399e-004
      -1.85198418e-003 -2.07844842e-003 -3.42596928e-003
      -3.74533841e-003 -2.58891075e-003 -2.99918628e-003
      -3.20574129e-003 -3.57701513e-003 -5.09731984e-003
      -4.77086147e-003 -5.52652264e-003 -5.47844777e-003
      -3.87528143e-003 -3.11606028e-003 -2.58085155e-003
      -3.07565718e-003 -3.27533134e-003 -1.93245825e-003
      -9.24661406e-004 -7.92115647e-003 -5.21871354e-003
      -2.87709918e-005 1.17916870e-003 9.74333379e-004 5.54645027e-004
      -2.54415954e-003 -3.73664103e-003 -2.54944549e-003
      -1.81931490e-003 -5.86527283e-004 3.26636509e-004 1.25866340e-004
      -4.77021327e-004 -4.42941644e-004 1.71272492e-003 -1.29655038e-003
      -3.93256545e-004 1.95848709e-003 3.22152977e-003 2.68285186e-003
      2.87700840e-003 4.78516752e-003 4.52755997e-003 4.92437463e-003
      2.72217998e-003 1.52451452e-003 1.17108447e-003 2.24617473e-003
      2.18895450e-003 1.33665488e-003 1.12170901e-003 1.12664246e-003
      7.73651627e-005 -1.47973967e-003 -2.62602698e-004 -3.57395766e-004
      9.65900021e-004 1.29955879e-003 9.35935939e-004 5.69328840e-004
      8.87741160e-004 7.99746369e-004 5.69915806e-004 1.26316049e-003
      2.06646021e-003 3.87473125e-003 4.72035818e-003 6.33642729e-003
      7.09092338e-003 7.62440730e-003 8.16952530e-003 9.05462354e-003
      8.96382146e-003 8.26782919e-003 6.42431062e-003 4.68883244e-003
      3.67361144e-003 3.12266103e-003 3.59235145e-003 2.78627593e-003
      3.07965820e-004 -1.04113703e-003 -1.66136702e-003 -1.04694545e-005
      -1.08805165e-004 -4.93717380e-004 -1.58168783e-004 4.67013102e-004
      1.54997077e-004 -2.21553601e-005 -1.49065617e-003 -1.86859979e-003
      -2.36370554e-003 -3.08797741e-003 -3.05506587e-003
      -4.40837117e-003 -2.93154921e-003 -9.55762225e-004
      -5.77347819e-004 -4.84131480e-004 -2.31353217e-003
      -1.23444898e-003 -3.20579018e-003 -1.45954045e-003
      -1.35450449e-003 -1.85794581e-003 -1.67479995e-003
      -6.63162849e-004 -2.58796406e-003 -3.90709378e-003
      -5.75270131e-003 -6.59766654e-003 -4.79106512e-003
      -4.21631336e-003 -3.99844628e-003 -3.15832719e-003
      -2.99665774e-003 -1.31651352e-003 -6.59826444e-004
      -5.40149119e-003 -4.18122858e-003 -4.83732874e-004 4.51550877e-004
      1.69800082e-003 1.89013348e-003 6.58844714e-004 -1.63833611e-003
      -8.15825697e-005 2.67194025e-003 4.75672865e-003 3.88220395e-003
      2.37560854e-003 2.67316424e-003 1.41002925e-003 1.12785376e-003
      1.29008584e-003 1.00785948e-003 1.64807739e-003 4.01826156e-003
      4.74575907e-003 5.33504831e-003 3.92936729e-003 3.41822836e-003
      2.87709478e-003 2.23540654e-003 3.81781923e-004 7.96270469e-005
      1.60109877e-004 1.61452475e-003 9.20114690e-004 5.28036209e-004
      8.82238746e-005 -1.13792170e-003 -1.98116968e-003 -1.93899591e-003
      -2.13906984e-003 -1.40736054e-003 -1.08231744e-003 1.86492410e-003
      1.02591899e-003 7.45529367e-004 1.49755983e-003 2.36719428e-003
      1.59119430e-003 3.58900265e-003 3.41610145e-003 4.82993806e-003
      6.82642590e-003 7.37597840e-003 6.98648952e-003 7.24657532e-003
      7.24261813e-003 6.72154874e-003 6.29047817e-003 4.97581391e-003
      2.34316941e-003 1.89601141e-003 1.97609374e-003 2.92277522e-003
      6.00450486e-003 2.19598599e-003 9.76914889e-004 -1.61160220e-004
      1.89493105e-004 2.12189203e-004 2.47526536e-004 -5.97072532e-004
      -2.54563318e-004 -2.21272626e-006 2.27577914e-003 1.31314516e-003
      -3.84880404e-004 -1.52189459e-003 -1.92629348e-003
      -3.33371037e-003 -4.83457278e-003 -2.57769483e-003
      -5.61852299e-004 5.86105307e-005 3.53985844e-004 -1.25362014e-003
      -1.70972734e-003 -3.34101240e-003 -2.74412427e-003
      -2.04902282e-003 -1.79821858e-003 -2.01609218e-003
      -2.22727540e-003 -2.41978746e-003 -2.73376796e-003
      -6.83781831e-003 -7.80695630e-003 -6.29954087e-003
      -4.45544627e-003 -3.54232057e-003 -3.09834420e-003
      -3.18036089e-003 -1.82848901e-003 -5.24658419e-004
      -3.16501781e-003 -3.16229928e-003 -1.95909571e-003
      -1.05819677e-003 7.75642518e-004 1.17039739e-003 1.71952287e-003
      1.02448277e-003 1.38393836e-003 4.05484485e-003 6.09881477e-003
      3.70657118e-003 1.88013806e-003 1.98879861e-003 2.66396004e-004
      4.04564809e-004 -6.02516848e-005 -2.17058710e-004 1.41883979e-003
      2.61212257e-003 4.31175902e-003 5.15181152e-003 3.21111991e-003
      3.73378722e-003 3.41935828e-003 2.62981164e-003 1.26412557e-003
      7.68219878e-004 1.33100210e-003 1.74423086e-003 8.43398971e-004
      4.03022626e-004 -3.19658517e-004 -7.55261921e-004 -1.72592793e-003
      -2.48874561e-003 -1.74628862e-003 -2.07895623e-003
      -2.99073843e-004 1.56785920e-003 2.47526052e-003 2.67446670e-003
      2.97366246e-003 2.96884216e-003 3.14693642e-003 3.53561505e-003
      3.34281544e-003 3.97863379e-003 4.55335435e-003 6.71061082e-003
      6.02203840e-003 7.02851685e-003 5.35062142e-003 4.72193398e-003
      4.05559642e-003 2.68059806e-003 1.34306890e-003 8.17396271e-004
      1.23490742e-003 3.12080630e-003 3.89043405e-003 1.36714044e-003
      -3.39871331e-004 -9.69811343e-004 -6.84053812e-005
      -5.50907396e-004 -2.83542351e-004 -1.05608359e-003
      -2.45378924e-005 1.61475886e-003 2.68909940e-003 2.60260818e-003
      2.02569389e-003 8.08016921e-004 -1.39725895e-003 -3.33718071e-003
      -4.35480522e-003 -2.75426777e-003 2.63394148e-004 3.77564254e-004
      1.63278508e-003 1.15080457e-003 -8.78047780e-004 -2.11085449e-003
      -2.09193747e-003 -1.81624992e-003 -1.66943693e-003
      -1.95618416e-003 -3.19642411e-003 -4.06994438e-003
      -5.24342014e-003 -7.58827012e-003 -7.35355960e-003
      -5.76455658e-003 -4.27290238e-003 -2.48855329e-003
      -1.92856439e-003 -2.01501208e-003 -9.19422309e-004
      -7.07212661e-004 -9.05411842e-004 -1.72071380e-003
      -2.99733761e-003 -1.79793430e-003 -7.49694533e-004
      -4.07184445e-004 3.41869367e-004 8.36001709e-004 2.25496618e-003
      2.28163693e-003 3.90687259e-003 3.32698482e-003 1.60450069e-003
      1.06973911e-003 4.69841383e-004 2.40300767e-004 -1.05630246e-003
      -3.90451663e-004 9.53078037e-004 1.62580691e-003 2.99571687e-003
      3.98052344e-003 4.75211442e-003 4.68382705e-003 4.84076096e-003
      4.27791756e-003 3.01938341e-003 1.98909943e-003 1.39070698e-003
      2.07870244e-003 1.92835985e-003 1.02255342e-003 3.03278351e-003
      2.60374183e-003 1.66732061e-003 6.22578431e-004 -1.16255018e-004
      6.36372497e-005 1.75512803e-003 2.52346415e-003 3.69135337e-003
      4.63336008e-003 2.98416219e-003 3.53547162e-003 2.96207680e-003
      4.28657187e-003 5.46602625e-003 4.70103230e-003 4.32253489e-003
      5.57401357e-003 5.97975543e-003 7.65481731e-003 6.17693877e-003
      6.49779383e-003 6.70036394e-003 4.43208218e-003 2.52903579e-003
      1.92239345e-003 2.10907450e-003 3.53729399e-003 4.63325018e-003
      1.38506421e-003 3.05331545e-004 9.68843175e-004 9.75493807e-004
      5.41492307e-004 3.01688851e-005 9.59893747e-004 3.79230501e-003
      4.02129767e-003 4.56761010e-003 5.03466511e-003 4.13110945e-003
      1.77095598e-003 -6.39053353e-004 -1.38203159e-003 -2.14145659e-003
      -8.24785209e-004 3.39203491e-003 2.29256670e-003 2.76657077e-003
      2.05209618e-003 -9.03765438e-004 -1.62986224e-003 -2.02566665e-003
      -1.90905482e-003 -1.52325642e-003 -1.23191602e-003
      -2.75622099e-003 -4.53769416e-003 -6.20991178e-003
      -6.73281867e-003 -5.03387861e-003 -3.92272789e-003
      -3.47427581e-003 -4.52968245e-003 -3.94166075e-003
      -3.51276458e-003 -2.58336565e-003 -1.10640842e-003 1.03468210e-005
      -2.48600170e-003 -2.87175295e-003 -1.80543843e-003
      -1.08861271e-003 1.11143861e-004 -3.43066698e-004 1.72828470e-004
      1.27321878e-003 2.08715349e-003 3.02526681e-003 1.05493725e-003
      -9.48104891e-004 -1.36220071e-003 -1.78438181e-003
      -2.65494897e-003 -2.01602723e-003 -1.98121392e-003
      -1.48324179e-003 1.96563808e-004 1.48989994e-003 1.78148272e-003
      3.24478978e-003 3.35774617e-003 2.57401797e-003 3.12317465e-003
      1.44046172e-003 -8.52811907e-004 -6.06906309e-004 2.00903072e-004
      6.28928770e-004 1.51737186e-003 3.16215563e-003 3.69116408e-003
      2.38233968e-003 1.10843079e-003 5.23024180e-004 -1.05094945e-003
      9.69201443e-004 1.81097491e-003 4.25278675e-003 5.27466787e-003
      4.15192358e-003 3.67841381e-003 3.83602595e-003 4.70224395e-003
      5.51432837e-003 5.09833312e-003 3.79163516e-003 3.34879616e-003
      4.03739652e-003 5.96404076e-003 6.08114293e-003 8.14616401e-003
      1.02452869e-002 6.20671501e-003 2.17476580e-003 5.55694161e-004
      1.30534230e-004 1.24934094e-003 7.96601584e-004 -1.09248946e-003
      -3.10856354e-004 9.86800063e-004 3.67683213e-004 7.61965930e-004
      -4.77988069e-004 8.77882179e-004 1.48655067e-003 1.58532988e-003
      2.18775705e-003 3.47502646e-003 2.71618506e-003 1.72445260e-003
      1.31367109e-004 -1.75675261e-003 -1.91825035e-003 -3.09738098e-004
      1.35680533e-003 1.17252069e-003 7.96049950e-004 3.59101134e-004
      -1.72937370e-003 -2.48076767e-003 -3.99468886e-003
      -3.94401606e-003 -3.25272605e-003 -3.76689667e-003
      -4.65074927e-003 -6.87032053e-003 -8.30790214e-003
      -8.11808743e-003 -6.93609472e-003 -4.82690288e-003
      -4.54753218e-003 -4.43503819e-003 -4.16209549e-003
      -3.58712836e-003 -1.89666508e-003 5.22546063e-004 -4.38999035e-004
      -4.02915012e-003 -4.40511340e-003 -2.29653879e-003
      -9.51895199e-004 6.47507957e-004 -9.34506417e-004 -9.71251051e-004
      1.66634622e-004 -2.60345423e-005 2.35397063e-004 -2.16165045e-003
      -3.11016012e-003 -3.62754636e-003 -4.73736133e-003
      -5.09039219e-003 -3.90667375e-003 -3.55434930e-003
      -3.19041079e-003 -1.28924567e-003 -1.05619512e-003
      -3.85416497e-004 1.82442856e-003 2.45908974e-003 3.03436746e-003
      2.93120346e-003 7.50118867e-004 -1.19969563e-003 -1.41091109e-003
      -1.54725130e-005 -5.61576802e-004 1.24005938e-003 2.86446675e-003
      2.63922196e-003 1.47180093e-004 -1.07918715e-003 -2.08581286e-003
      -3.37087945e-003 -5.14605781e-004 4.25226614e-003 4.55343304e-003
      5.69637632e-003 6.84790686e-003 5.22830384e-003 5.00807865e-003
      5.81792882e-003 7.57339178e-003 7.78663624e-003 5.82676660e-003
      4.40477859e-003 3.54540627e-003 5.20287920e-003 5.98698808e-003
      7.49157136e-003 9.89817362e-003 7.27968058e-003 3.75115988e-003
      1.30261469e-003 1.81488096e-004 3.05991241e-004 -4.13151167e-004
      -2.29957583e-003 -8.53265927e-004 -1.54520595e-003
      -2.92274472e-003 -2.38058739e-003 -4.43315221e-004 8.03066941e-004
      6.30529248e-005 -9.79718825e-005 1.26782083e-003 2.17429199e-003
      2.67194654e-003 1.69936183e-003 1.38197036e-003 -1.19442784e-003
      -1.40969001e-003 3.25913029e-003 3.91213270e-003 1.39767991e-003
      1.00735668e-003 1.48506416e-003 -3.89313936e-004 -1.97649305e-003
      -4.00668615e-003 -3.93370679e-003 -2.92508397e-003
      -4.15807497e-003 -5.82311954e-003 -7.78539851e-003
      -9.42758378e-003 -9.89475939e-003 -8.42178706e-003
      -6.23435015e-003 -3.69058433e-003 -3.49174323e-003
      -3.42887850e-003 -1.74666347e-003 -1.28356463e-004 3.11817182e-003
      -7.14503927e-004 -3.44103086e-003 -3.37377167e-003
      -1.52553339e-003 6.88557848e-005 2.04487541e-003 4.20545490e-004
      3.60076665e-004 1.05379440e-003 -6.37369347e-004 -6.81548903e-004
      -2.90236156e-003 -4.15550591e-003 -4.73607192e-003
      -5.40780881e-003 -5.74368006e-003 -4.88785980e-003
      -4.22727037e-003 -3.85285239e-003 -1.90270261e-003
      -1.01018348e-003 1.49683747e-003 2.46367650e-003 3.50248022e-003
      4.93996451e-003 4.81617637e-003 2.85699568e-003 7.80694187e-004
      -4.30068409e-004 -8.86123511e-004 -1.30375498e-003
      -4.32472414e-004 1.27586967e-003 1.12608192e-003 3.58658726e-004
      -1.12104951e-003 -2.57181493e-003 -2.65773968e-003 2.78730108e-003
      6.15864852e-003 6.49721315e-003 6.39517605e-003 4.09409124e-003
      2.43323832e-003 1.44626386e-003 2.28330959e-003 4.41945856e-003
      4.26585088e-003 4.41986788e-003 5.95654827e-003 5.55835245e-003
      5.65239089e-003 5.37815178e-003 6.87093334e-003 6.44889241e-003
      5.35864476e-003 4.69229510e-003 3.07871052e-003 2.39366689e-003
      2.10849242e-003 1.98754249e-003 1.35081750e-003 5.16440137e-004
      -1.03651697e-003 -2.18052766e-003 -1.14250823e-003
      -1.72588916e-005 1.84350356e-005 -1.09792221e-003 -1.52654049e-003
      1.84950943e-004 1.96739007e-003 4.03671525e-003 3.38198990e-003
      3.30832880e-003 1.00203417e-003 1.03172241e-003 4.91676573e-003
      4.05860972e-003 2.02177907e-003 1.27339410e-003 8.45559465e-004
      1.88480612e-004 -1.39246020e-003 -3.66554759e-003 -4.35437402e-003
      -1.10154669e-003 -3.64838145e-003 -5.92050934e-003
      -7.95057602e-003 -8.86303000e-003 -9.44233034e-003
      -8.67003389e-003 -5.57254814e-003 -2.48169550e-003
      -1.95892807e-003 -1.77876069e-003 -1.06787682e-003 1.36393134e-003
      4.77104681e-003 -2.02095183e-003 -4.10650205e-003 -2.97187734e-003
      -2.88833864e-004 7.18709663e-004 2.21553398e-003 -2.33646424e-004
      -1.29656430e-004 6.05044188e-004 -1.68346777e-003 -1.55028154e-003
      -3.74152162e-003 -4.03126329e-003 -4.77982452e-003
      -4.33349656e-003 -4.26322501e-003 -4.18483792e-003
      -3.46827949e-003 -2.79014651e-003 -5.18287823e-004 6.79273799e-005
      2.13542534e-003 3.54158413e-003 5.39922994e-003 4.85819811e-003
      5.00819180e-003 4.31967620e-003 1.86564703e-003 1.84314285e-005
      -1.10835268e-003 -1.43287308e-003 -8.28797230e-004 5.29386569e-004
      3.97030904e-004 -6.40625251e-004 -3.43639334e-003 -4.49856091e-003
      -1.31465681e-003 1.06304325e-003 3.34877358e-003 2.19098310e-005
      -1.53301260e-003 -2.05250783e-003 -2.40620133e-003
      -1.79263717e-003 -4.01710917e-004 1.07555868e-004 -3.43927415e-004
      4.70227445e-004 1.28637929e-003 2.93361465e-003 3.91902495e-003
      3.98203963e-003 2.56433641e-003 3.29770963e-003 4.38484875e-003
      4.99431835e-003 3.73601401e-003 3.32674803e-003 3.62870307e-003
      4.11397545e-003 4.80640540e-003 2.49450444e-003 4.60587413e-004
      -1.02827849e-004 3.35495482e-004 7.99169240e-004 1.72056374e-004
      -1.54857535e-003 -1.75566366e-003 -5.86864189e-004 2.37871381e-003
      4.94295126e-003 4.71370667e-003 3.70749948e-003 2.09798943e-003
      1.77595904e-003 4.38918779e-003 4.09256015e-003 1.28836895e-003
      1.58443500e-003 2.29508826e-003 1.53612823e-003 -8.53293343e-004
      -3.25065362e-003 -5.03764255e-003 -1.97015260e-003
      -6.05486659e-003 -7.20394449e-003 -8.66275840e-003
      -1.03225820e-002 -1.00443438e-002 -8.46845191e-003
      -5.51423663e-003 -2.24629999e-003 -5.52634738e-005
      -9.17370606e-004 -3.35745681e-005 2.63358909e-003 6.42306777e-003
      -4.89142071e-003 -5.05801616e-003 -3.71411326e-003
      -1.86986825e-003 1.20171011e-004 7.20364915e-004 -2.04709638e-003
      -1.76383182e-003 -1.15359365e-003 -2.21957569e-003
      -1.42829178e-003 -3.31315887e-003 -5.08137466e-003
      -4.42796433e-003 -4.61108470e-003 -4.87668067e-003
      -4.21052752e-003 -1.15843362e-003 -2.77485437e-004 1.48677710e-003
      1.84901920e-003 2.64397915e-003 4.72984789e-003 6.04291819e-003
      4.23092349e-003 4.58757486e-003 2.75992416e-003 1.36320072e-003
      1.11620850e-003 -8.55560298e-004 -1.23050075e-003 -1.00532779e-003
      -3.69253918e-004 1.74732340e-004 6.17687183e-005 -5.17601799e-003
      -6.62204064e-003 -5.77569706e-003 -3.19626555e-003 2.22373544e-003
      4.59487754e-004 -2.20789225e-003 -1.82166253e-003 -2.22043064e-003
      -2.03749724e-003 -3.26163787e-003 -3.44658992e-003
      -3.26095056e-003 -3.70135624e-003 -3.23448819e-003
      -9.68840555e-004 2.31194613e-003 4.59258538e-003 2.27575796e-003
      1.64548823e-004 3.72633617e-003 5.65823168e-003 3.40710254e-003
      3.37068690e-003 3.40355560e-003 4.15276643e-003 4.42349212e-003
      3.40109086e-003 2.14428827e-003 2.30213325e-003 3.41701508e-003
      3.71925579e-003 9.12521966e-004 -8.33257742e-004 -8.29921511e-004
      -1.97218600e-004 2.59230682e-003 4.50302893e-003 5.95801091e-003
      5.32781286e-003 3.72400018e-003 2.53293104e-003 7.14802323e-003
      6.40868070e-003 1.61356106e-003 1.67040539e-003 2.39097280e-003
      1.03126711e-003 4.96083638e-004 -1.98323792e-003 -2.84684985e-003
      -5.31759718e-003 -7.68796494e-003 -9.33745503e-003
      -1.03137083e-002 -1.04274657e-002 -8.87903292e-003
      -6.97538676e-003 -4.02674265e-003 -3.62938990e-005 2.89349235e-003
      1.82706490e-003 -6.37686811e-004 5.54288621e-004 5.36055584e-003
      -1.73141458e-003 -3.31113231e-003 -2.21448857e-003
      -1.98825239e-003 8.26171618e-006 -2.52038153e-004 -1.95290067e-003
      -1.38948811e-003 -8.54774844e-004 -2.00850284e-003
      -9.19056474e-004 -4.63722413e-003 -6.54705241e-003
      -6.95047528e-003 -6.87521975e-003 -5.56178158e-003
      -3.24555999e-003 -5.61902416e-005 3.17641534e-004 1.66310009e-003
      2.90498394e-003 3.25981551e-003 4.67751361e-003 4.67980281e-003
      3.14477901e-003 2.72606453e-003 2.62543117e-003 1.22282130e-003
      1.16478489e-003 3.31590301e-004 4.67714068e-004 5.29546873e-004
      3.50285816e-004 -1.41057838e-003 -5.62812760e-003 -7.91595131e-003
      -6.70967065e-003 -4.47260169e-003 -2.95088696e-003 4.35660972e-004
      9.33766933e-005 -9.00858315e-004 -2.09629256e-003 -1.75012206e-003
      -1.43825740e-003 -1.43805414e-003 -3.27968574e-003
      -3.49909090e-003 -5.03042387e-003 -5.09082293e-003
      -5.03944280e-003 -2.45866342e-003 2.34834664e-003 5.45438938e-003
      1.47762510e-003 3.46405606e-004 2.34724418e-003 2.03524204e-003
      2.13858322e-003 4.75990400e-003 5.75990789e-003 3.07491398e-003
      2.72245216e-003 2.90742959e-003 5.13845868e-003 4.38123755e-003
      3.23502277e-003 1.53850811e-003 -3.87989276e-005 -1.17916812e-003
      4.31945577e-004 2.77858693e-003 3.88424890e-003 4.52686613e-003
      4.28064307e-003 2.24836078e-003 1.26476726e-003 5.53901168e-003
      4.69277706e-003 2.38647172e-003 3.44025670e-003 1.12258550e-003
      2.14162035e-004 4.44808160e-004 -3.77869990e-004 -3.49989533e-003
      -5.37970942e-003 -8.58113449e-003 -9.99900978e-003
      -1.03626922e-002 -9.39534232e-003 -7.61881238e-003
      -5.02620032e-003 -6.84290309e-004 2.99882912e-003 5.89989033e-003
      5.57907671e-003 3.24939517e-003 1.03040526e-004 -3.09386337e-003
      9.34862299e-004 2.97731574e-004 6.29212809e-005 8.16757150e-004
      3.24088242e-003 2.72445870e-003 1.93703186e-003 2.44055619e-003
      2.73541617e-003 1.93029514e-003 9.79889301e-004 -2.26248940e-003
      -6.10850099e-003 -8.08063895e-003 -7.39699556e-003
      -4.94192587e-003 -4.20014636e-004 2.40468280e-003 2.29651295e-003
      3.93161317e-003 4.34458861e-003 3.60461208e-003 2.28118594e-003
      2.57499819e-003 3.40986438e-003 3.57566844e-003 3.38116358e-003
      2.33123335e-003 2.44960678e-003 1.87003717e-003 1.46349159e-003
      2.36982573e-003 9.91094275e-004 -3.47532844e-003 -7.49871461e-003
      -4.34399582e-003 -2.68321973e-003 -9.49839188e-004
      -1.11313455e-003 -1.12141017e-003 -6.80107623e-004
      -8.63727590e-004 -6.16215228e-004 1.21577490e-004 6.55420081e-005
      -3.18974606e-004 -6.49384747e-004 -3.46448249e-003
      -3.50589980e-003 -3.21041490e-003 -4.12516296e-003
      -2.17027636e-003 9.07672627e-004 5.69539797e-003 4.37145028e-003
      2.72774138e-003 8.49064963e-005 -2.78982869e-003 3.67251690e-004
      1.16456744e-004 6.88453147e-004 -7.39074778e-004 3.66995198e-004
      1.98670570e-003 3.06848320e-003 1.08917395e-003 -4.37287352e-004
      -1.48457882e-003 -1.90967950e-003 -1.27883616e-003
      -1.39973697e-003 8.73588026e-004 1.90938869e-003 1.25325134e-003
      2.04859884e-003 1.16868585e-003 -6.01695501e-004 5.98144077e-004
      5.41922403e-004 -4.53554792e-004 1.72626134e-003 3.09133134e-003
      3.42153455e-003 1.14439905e-003 1.16073538e-003 -8.44385300e-004
      -4.21438692e-003 -7.07402313e-003 -8.35935306e-003
      -9.45089012e-003 -8.27531330e-003 -6.06455328e-003
      -1.44751975e-003 2.31903163e-003 5.53371431e-003 8.14642385e-003
      8.60827323e-003 5.46184648e-003 -1.37595821e-003 2.11961148e-003
      3.38615919e-003 1.75589835e-003 1.00756215e-003 8.61967448e-004
      2.40958971e-003 3.32484371e-003 2.24589929e-003 2.51572533e-003
      2.84881238e-003 1.37484958e-003 1.90544489e-003 -1.93694921e-003
      -5.48111601e-003 -6.61253091e-003 -6.52070064e-003
      -3.61945294e-003 1.81421777e-003 4.26234445e-003 4.22892906e-003
      3.32539342e-003 3.43186175e-003 2.60219141e-003 2.16201670e-003
      3.01024015e-003 4.25061630e-003 4.72829444e-003 3.49776540e-003
      2.23252224e-003 2.99440324e-003 2.85861618e-003 3.36814532e-003
      1.45958038e-003 -7.59494491e-004 -6.07347628e-003 -5.19898254e-003
      -2.10471509e-004 7.26038939e-004 -1.52374210e-004 -1.06450322e-003
      -2.13331310e-003 -3.51755857e-003 -3.61100188e-003
      -2.80111190e-003 -3.84990824e-003 -2.82227295e-003
      -2.96524167e-003 -4.31229500e-003 -5.53941075e-003
      -6.40738383e-003 -5.10219811e-003 -4.54272563e-003
      -5.87682379e-003 -1.59700762e-003 -1.36635615e-003
      -1.02247996e-003 -4.01899772e-004 -3.54345515e-003
      -5.98384067e-003 -5.11120539e-003 -2.43407860e-003 2.49775732e-003
      2.92347884e-003 2.80925236e-003 2.38605053e-003 3.98194767e-004
      -1.82574103e-003 -4.08350537e-003 -3.07948445e-003
      -3.82409245e-003 -3.25254258e-003 -4.63234726e-003
      -3.64286848e-003 -1.04519108e-003 3.73914751e-004 3.26744304e-003
      9.32345807e-004 -1.24742929e-003 -8.83608300e-004 -1.09864643e-003
      -2.41078367e-003 1.41624722e-003 2.79214140e-003 4.47707856e-003
      2.60005076e-003 3.72371823e-003 2.58185784e-003 -1.55686820e-003
      -5.11677144e-003 -7.66855804e-003 -7.72441039e-003
      -5.17271506e-003 -2.85731349e-003 1.78218901e-003 4.68927063e-003
      7.89675862e-003 8.75766855e-003 9.35876369e-003 2.84825044e-004
      -2.94447807e-003 4.80931718e-003 3.40498122e-003 1.44221948e-003
      1.08747197e-004 7.32648594e-004 2.14547897e-003 3.30642867e-003
      2.60919752e-003 1.96793349e-003 2.34211748e-003 6.40995160e-004
      1.96267758e-003 -1.63320790e-003 -3.99473635e-003 -3.81107186e-003
      -4.66995453e-003 -2.98666628e-003 1.99187826e-003 4.12102137e-003
      4.94744489e-003 3.78137571e-003 3.54148471e-003 2.21682806e-003
      2.51428201e-003 4.48644254e-003 4.71235858e-003 5.78131946e-003
      4.42016404e-003 2.94186873e-003 3.92139936e-003 3.75484023e-003
      4.05487791e-003 2.33654771e-003 1.07586919e-003 -5.44433203e-003
      -4.31051850e-003 -1.98264443e-003 -8.13575985e-004
      -2.12882529e-003 -6.22118969e-005 -1.14380688e-004
      -1.82551285e-003 -7.17654824e-004 9.67920059e-004 -1.05706036e-004
      -2.23279628e-003 -1.82659598e-003 -1.42212608e-003
      -4.53792373e-003 -4.37875325e-003 -5.33284387e-003
      -6.43311348e-003 -8.68335180e-003 -1.07438620e-002
      -7.62585504e-003 -5.54430811e-003 -1.10308058e-003
      -9.24886554e-004 -1.49534235e-003 5.80075663e-004 -8.34501698e-004
      4.26634494e-003 6.87935390e-003 5.56019135e-003 3.16074793e-003
      8.08414770e-004 -1.49942178e-003 -3.01438686e-003 -3.71702132e-003
      -6.26133522e-003 -7.37790391e-003 -7.53723551e-003
      -5.84786246e-003 -2.54620938e-003 1.32420741e-003 3.83699848e-003
      2.23295041e-003 -1.55315199e-003 4.87976591e-004 -1.30118869e-005
      -9.38541256e-004 2.06985220e-004 2.12408695e-003 3.58829834e-003
      2.96593714e-003 2.30292534e-003 1.38720928e-003 2.22528423e-003
      -1.66568591e-003 -3.43530416e-003 -3.40767344e-003
      -2.53635971e-003 9.15352663e-004 4.16996749e-003 6.73681963e-003
      8.92149284e-003 1.07020950e-002 5.44864452e-003 -1.10683672e-003
      1.43487833e-003 5.36243757e-003 2.09356309e-003 2.16765155e-004
      -3.16948572e-004 -6.60863821e-004 1.06001843e-003 2.21891864e-003
      1.80851528e-003 1.33093121e-003 1.74261001e-003 1.31405215e-003
      2.44575902e-003 -8.46133509e-004 -2.90293270e-003 -2.27709906e-003
      -1.64655678e-003 1.60139718e-003 4.18071589e-003 3.02874413e-003
      2.91190296e-003 2.87641771e-003 3.27010197e-003 3.41306557e-003
      3.78662464e-003 4.75710677e-003 4.73557413e-003 5.25978208e-003
      4.49738279e-003 4.24370915e-003 5.75951487e-003 5.88538451e-003
      2.54428783e-003 3.82895989e-004 -3.29428865e-003 -7.29497476e-003
      -5.32448571e-003 -3.12655675e-003 1.00403136e-004 1.58148143e-003
      3.35886073e-003 2.20628874e-003 4.99003974e-004 1.91415055e-003
      3.10273538e-003 4.15239803e-004 4.97418223e-004 -1.43668184e-003
      -1.23129960e-003 -2.76584853e-003 -2.68818601e-003
      -3.50828562e-003 -7.64809456e-003 -8.76179151e-003
      -8.59610550e-003 -6.47953991e-003 -4.11871634e-003
      -1.64923270e-003 -1.08389359e-003 -7.27468461e-004
      -5.23898852e-005 8.64990870e-004 -2.75926723e-004 3.82384658e-003
      4.48287977e-003 2.98950495e-003 2.44285143e-003 -1.77684415e-003
      -4.06136224e-003 -4.64812247e-003 -6.47076173e-003
      -7.02259224e-003 -6.10329071e-003 -4.40403167e-003
      -1.36537792e-003 -2.58176727e-003 5.17398678e-003 3.50273727e-003
      8.72801349e-004 2.67902948e-003 3.16126924e-003 4.21882462e-004
      1.49402732e-003 1.82084355e-003 2.32048589e-003 3.14763701e-003
      3.41013609e-003 2.76154326e-003 2.89971079e-003 4.44323639e-004
      7.77235313e-004 -2.26722099e-004 3.88932676e-004 2.71630590e-003
      5.90928597e-003 7.23560387e-003 7.68252648e-003 7.24173710e-003
      1.48494029e-003 1.98558136e-003 5.36325853e-003 8.62187520e-003
      1.33519771e-003 -7.24043348e-005 -9.23323445e-004 -1.12552487e-003
      5.60078595e-004 8.25566065e-004 6.79044751e-004 4.88912105e-004
      1.39014365e-003 1.63358089e-003 3.67790717e-003 8.11336213e-004
      -1.62316288e-003 -2.06150853e-005 2.24206992e-003 6.05986081e-003
      6.01828517e-003 4.54235729e-003 3.06390016e-003 2.12210952e-003
      3.32044112e-003 4.85943956e-003 5.80921909e-003 6.78030308e-003
      6.03491347e-003 7.38573307e-003 6.66082976e-003 7.46723311e-003
      6.43240148e-003 6.08077412e-003 2.48513324e-003 -2.21109507e-003
      -8.93386547e-003 -7.14946026e-003 -3.51582957e-003
      -1.53950322e-003 -1.16214808e-003 1.20077562e-003 3.04092886e-003
      3.45503795e-003 1.89807150e-003 2.12779571e-003 3.27228568e-003
      4.51068766e-003 2.11669318e-003 4.80085100e-006 -4.71526437e-004
      -6.49956055e-004 -1.14800583e-004 -3.44223832e-003
      -5.74848661e-003 -5.57982503e-003 -4.03748499e-003
      -3.32257804e-003 -1.41495699e-003 3.87525954e-003 2.80911830e-004
      7.67238147e-004 2.88348738e-003 -5.61444846e-004 -4.25047969e-004
      -6.57616125e-004 -1.79647788e-004 -1.92992762e-003
      -3.71972634e-003 -5.14666364e-003 -6.42553298e-003
      -3.32105276e-003 -3.64968297e-003 -4.82946727e-003
      -5.06900065e-003 -6.34937175e-003 -5.50289452e-003
      -5.53936092e-003 5.84712834e-004 -1.62994873e-003 4.54800582e-004
      5.07989107e-003 5.46750333e-003 3.74520523e-003 3.56832868e-003
      9.39159887e-004 1.94655859e-003 3.13713821e-003 4.22532856e-003
      3.65569792e-003 3.48083512e-003 1.99165568e-003 1.38824363e-003
      1.37086713e-003 3.32374219e-003 6.20794762e-003 8.61034449e-003
      7.76046654e-003 4.10366338e-003 3.89491278e-003 7.81228254e-003
      6.80323225e-003 8.43661278e-003 1.01031279e-002 -3.47717694e-004
      -1.69720745e-003 -2.05349689e-003 -9.08138230e-004
      -3.31008661e-004 -4.73970344e-004 -2.12604110e-003
      -1.05916290e-003 -7.38943418e-005 1.86122383e-003 4.39585280e-003
      2.24424899e-003 4.04099526e-004 1.43326889e-003 2.20855279e-003
      4.31664521e-003 5.19237760e-003 4.30608122e-003 2.47713341e-003
      1.90127851e-003 3.01857921e-003 4.63802088e-003 5.89186419e-003
      6.89957151e-003 6.66696252e-003 7.52361957e-003 7.31158350e-003
      7.62164406e-003 5.91777591e-003 4.04490065e-003 -3.17349378e-003
      -6.77463273e-003 -9.98967793e-003 -8.13894812e-003
      -6.27761614e-003 -2.91614723e-003 -2.49072909e-005 2.68045021e-003
      5.19505143e-003 4.77240747e-003 3.63659370e-003 4.65141656e-003
      3.66193103e-003 4.14484320e-003 2.12173839e-003 1.08152139e-003
      -4.64440498e-004 -5.03681833e-004 -1.84485037e-003
      -2.84893112e-003 -1.78423617e-003 -2.00286042e-003
      -4.52269276e-004 1.24105043e-003 3.96840321e-003 9.29393526e-003
      5.18869655e-003 1.65638851e-003 -1.56188163e-003 1.47653732e-003
      -1.65372994e-003 -1.87833630e-003 -1.33892754e-003
      -3.62029369e-003 -5.66570414e-003 -7.87717663e-003
      -7.01269042e-003 -5.42303734e-003 -5.28700277e-003
      -4.48298408e-003 -3.07476451e-003 -4.85072332e-003
      -8.03018175e-003 -1.09597882e-002 -9.37692728e-003
      -6.57947036e-003 1.62996259e-003 6.97523402e-003 7.51457456e-003
      6.69309264e-003 3.91370617e-003 1.53938145e-003 2.50305864e-003
      3.24861589e-003 4.61521372e-003 4.58254991e-003 5.07596973e-003
      3.99583019e-003 3.25485179e-003 4.08237893e-003 4.69930470e-003
      7.64593016e-003 9.33365338e-003 9.43092071e-003 4.93132928e-003
      6.25041081e-003 9.70672164e-003 5.91228949e-003 7.63553847e-003
      1.09245237e-002 -2.71690544e-003 -3.90293146e-003 -2.63132900e-003
      -1.55828381e-003 -5.26500051e-004 -3.26378387e-004
      -8.75954458e-004 -3.24210094e-004 4.83021635e-004 1.65363075e-003
      3.18851625e-003 1.94210547e-003 7.02362042e-004 1.28874404e-003
      1.70314242e-003 3.07827070e-003 4.22662916e-003 3.46182706e-003
      3.19389673e-003 2.14216486e-003 2.13279482e-003 4.42521740e-003
      6.76160585e-003 8.31586216e-003 8.25970806e-003 8.54582898e-003
      7.50101497e-003 8.13389476e-003 5.55243203e-003 -7.42569973e-004
      -5.55397756e-003 -5.86768845e-003 -1.02673694e-002
      -7.14521157e-003 -3.69530288e-003 5.65135560e-004 3.47491750e-003
      6.16660668e-003 8.26250855e-003 9.44348332e-003 8.47929437e-003
      7.34186592e-003 6.76331902e-003 5.63110551e-003 4.27595526e-003
      3.90183646e-003 3.80371325e-003 2.36516586e-003 -3.08696367e-003
      -9.52782051e-004 2.13313731e-003 8.66333372e-004 2.37631472e-003
      3.57901654e-003 5.90880308e-003 1.13448901e-002 1.04700532e-002
      2.42285081e-003 1.87188725e-003 6.17490150e-004 -1.91192108e-003
      -2.13443325e-003 -7.45990081e-004 -1.75772398e-003
      -2.82417983e-003 -3.17534711e-003 -3.59364040e-003
      -1.56726164e-003 4.19895259e-005 -4.97640669e-003 -3.79566755e-003
      -3.80741875e-003 -4.84124571e-003 -1.09431241e-002
      -9.90061741e-003 -7.22258817e-003 -1.67457643e-003 4.50965483e-003
      7.36489613e-003 4.16400004e-003 4.87786112e-003 6.13825256e-003
      1.93667144e-003 3.71219451e-003 5.67243155e-003 5.56851132e-003
      5.61733171e-003 5.05980710e-003 4.84437915e-003 6.16615312e-003
      6.42562518e-003 7.49947084e-003 1.00454940e-002 6.64960174e-003
      3.35038407e-003 1.04640201e-002 1.13997255e-002 7.81233748e-003
      7.51172006e-003 9.34886094e-003 -3.96206835e-003 -4.84119030e-003
      -5.00537455e-003 -4.44969116e-003 -3.30404076e-003
      -2.08590971e-003 1.79968207e-004 9.41975683e-004 1.76695513e-003
      1.85424625e-003 2.31315731e-003 1.45913649e-003 1.37903343e-003
      1.40346750e-003 1.25357090e-003 2.90334853e-003 4.15830454e-003
      3.93955410e-003 3.30315344e-003 1.88271992e-003 2.31163763e-003
      3.39602609e-003 5.67114865e-003 8.42601247e-003 9.09464713e-003
      9.57549829e-003 8.47433228e-003 5.81546919e-003 3.22900107e-003
      5.02600218e-004 -2.68767448e-003 -3.94612178e-003 -7.30042765e-003
      -2.28269235e-003 9.02089756e-004 2.74746167e-003 5.14154369e-003
      7.31941499e-003 7.51025556e-003 8.87855701e-003 8.14375095e-003
      6.96800184e-003 7.46722100e-003 4.97043179e-003 1.09713560e-003
      -9.43406485e-005 -5.73469384e-004 -3.08497343e-003
      -3.96683719e-003 -3.04409466e-003 -9.45642765e-004 3.11299722e-004
      2.61405809e-003 5.16324770e-003 6.37576403e-003 9.16456617e-003
      3.33820470e-003 2.36520963e-003 2.72071059e-003 1.82422635e-003
      6.64567633e-004 2.91797071e-004 1.64437969e-003 1.26229681e-003
      6.60463993e-004 -8.22119706e-004 -9.07858368e-004 -6.35965087e-004
      -1.75144104e-003 -5.61346859e-003 -6.50136266e-003
      -4.28138394e-003 -4.04849136e-003 -8.35397374e-003
      -9.33845527e-003 -8.04414134e-003 -1.76598644e-003 1.56321551e-003
      2.74304301e-003 3.85862682e-003 2.90232501e-003 5.62341884e-003
      4.91842814e-003 5.75041119e-003 7.19335489e-003 7.07060425e-003
      6.30715815e-003 5.85481944e-003 5.28600905e-003 6.86828746e-003
      6.60715438e-003 6.95650280e-003 8.67968332e-003 5.74189983e-003
      8.46179947e-003 1.15291998e-002 1.04451105e-002 5.95803978e-003
      4.48814640e-003 6.13728072e-003 -4.49438626e-003 -6.91048894e-003
      -8.07759259e-003 -8.43902491e-003 -6.16536383e-003
      -3.66534246e-003 -2.74437643e-003 -8.51817545e-004 1.05772342e-003
      5.27036609e-004 5.15563821e-004 -9.36414173e-004 1.81042458e-004
      1.23477273e-003 2.01264676e-003 3.76183935e-003 4.16704779e-003
      3.95283289e-003 4.17114934e-003 1.73822034e-003 1.74355926e-003
      1.33816642e-003 3.97129264e-003 7.60782696e-003 9.11911950e-003
      9.69836116e-003 8.28151498e-003 5.99762658e-003 5.62099274e-003
      3.33095412e-003 -1.18815235e-003 -8.72787670e-004 -1.82669819e-003
      1.06697727e-003 3.26583022e-003 5.60002029e-003 8.01498909e-003
      8.93103704e-003 6.38302462e-003 5.68565261e-003 1.65555591e-003
      3.40614584e-003 2.02214392e-003 -2.07635504e-003 -7.10003404e-003
      -7.16497656e-003 -1.03223510e-002 -1.14719998e-002
      -1.38103440e-002 -1.31805576e-002 -1.07352026e-002
      -5.80192031e-003 1.85627156e-004 2.47563538e-003 9.41995531e-003
      6.13828469e-003 1.14816462e-003 1.52499357e-003 3.95660382e-003
      2.23177392e-003 1.66050345e-003 5.51970070e-003 1.80703332e-003
      8.45759583e-004 1.08593747e-004 3.59601807e-004 1.91825547e-003
      1.36843126e-003 3.18738312e-004 -2.84638000e-003 -3.59806255e-003
      -4.11900971e-003 -5.38208801e-003 -6.43890444e-003
      -6.22954778e-003 -6.45983685e-003 -4.11344040e-003 4.15069284e-004
      -5.39339962e-004 4.07572152e-005 2.38435250e-003 4.12539905e-003
      5.50377788e-003 7.60591822e-003 8.09922069e-003 8.12844932e-003
      7.11590983e-003 5.01313712e-003 4.01677424e-003 5.95598202e-003
      6.52390299e-003 6.50050864e-003 4.17168112e-003 8.13807640e-003
      9.62639134e-003 9.43742227e-003 6.84815459e-003 2.48251110e-003
      1.56923395e-003 2.39450904e-003 -4.17032279e-003 -6.13234052e-003
      -8.35841056e-003 -9.32082348e-003 -8.39897618e-003
      -6.41589984e-003 -6.69116108e-003 -2.70797126e-003
      -7.24769372e-004 -1.11856859e-003 3.48040718e-004 -1.58348435e-003
      -8.54430255e-004 4.90220438e-004 1.21961930e-003 2.48957821e-003
      3.43073672e-003 3.18345730e-003 2.93355132e-003 6.43217005e-004
      1.30035798e-004 -1.27940392e-003 9.79342847e-004 4.38253069e-003
      6.03732513e-003 6.07667211e-003 4.30892734e-003 7.12076249e-003
      7.39810616e-003 3.85421398e-003 8.77162383e-004 1.70228607e-003
      1.25424843e-003 2.94842152e-003 4.90572210e-003 7.20550912e-003
      8.48959759e-003 5.27490769e-003 -2.17241840e-003 -3.19515495e-003
      5.84723544e-004 2.06447393e-003 3.66304303e-004 -1.82308606e-003
      -3.29273916e-003 -2.39512813e-003 -3.54794343e-003
      -9.71646421e-003 -1.28596826e-002 -1.51828285e-002
      -1.26645369e-002 -1.01247709e-002 -6.91273296e-003
      -6.77686837e-003 -6.18531043e-003 -4.63754358e-003
      -5.19062951e-003 -5.18617593e-003 1.99442822e-003 3.53564462e-003
      5.51098710e-005 1.04980050e-002 2.33465247e-003 2.59440276e-003
      1.39547733e-003 1.94903259e-004 1.73714734e-003 7.98410445e-004
      3.89972527e-004 4.51392298e-005 -1.88004272e-003 -1.13911822e-003
      -3.48992762e-003 -3.81516502e-003 -3.67424521e-003
      -3.36424843e-003 -5.06678317e-003 -3.12482030e-003
      -2.92523112e-003 -6.00480475e-003 7.38095550e-004 1.24880474e-003
      7.28213554e-003 9.38004814e-003 9.19117685e-003 8.74608755e-003
      7.26695079e-003 4.70107794e-003 3.51842656e-003 3.97454854e-003
      5.51091507e-003 7.24953739e-003 4.60791914e-003 6.46562316e-003
      8.98621976e-003 5.96896745e-003 3.13418452e-003 3.41363600e-004
      -1.48350233e-003 -8.68302479e-004 -3.86160333e-003
      -5.42692607e-003 -6.83204597e-003 -7.03590736e-003
      -6.80884160e-003 -5.57141472e-003 -6.12421334e-003
      -5.88972820e-003 -5.58328768e-003 -3.68490163e-003
      -8.54982994e-004 -1.85359339e-003 -4.25141043e-004 7.59547518e-004
      1.95214048e-003 3.17207281e-003 3.61643592e-003 2.29861587e-003
      2.52796127e-003 9.50577843e-004 -1.40156085e-003 -4.16611973e-003
      -2.17488292e-003 5.48798591e-004 2.29124748e-003 3.79939214e-003
      4.90088342e-003 6.83422247e-003 7.89310131e-003 4.32706485e-003
      1.40146073e-003 1.20357785e-003 1.33004400e-003 5.09628188e-003
      5.68494573e-003 6.54158555e-003 5.62556321e-003 -2.34482763e-003
      -6.67697424e-003 -1.92460022e-003 2.60001398e-003 4.44671651e-003
      4.53257095e-003 2.42493767e-003 1.97924464e-003 -9.79089877e-004
      -2.75066146e-003 -1.03521571e-002 -9.65398550e-003
      -9.57892742e-003 -8.99114460e-003 -7.96193164e-003
      -5.54203195e-003 -3.49589088e-003 -1.22935390e-002
      -9.80994664e-003 -6.67664316e-003 -5.78260096e-003
      -5.30772097e-003 2.42511672e-003 -3.73893359e-004 7.39817740e-003
      4.64220159e-003 1.60958432e-003 2.46529374e-003 1.98121672e-003
      6.92546600e-004 4.05281782e-004 7.09981425e-004 1.31104840e-004
      -2.94094178e-004 5.24762319e-004 -1.47805829e-003 -1.84178329e-003
      -2.34516058e-003 -2.84822728e-003 -5.13467053e-003
      -2.03985954e-003 -2.69771949e-003 -7.06200162e-003
      -3.63886799e-003 2.71639391e-003 6.56583952e-003 1.05312988e-002
      9.38425306e-003 9.24349204e-003 6.28501456e-003 3.79402260e-003
      3.39933229e-003 3.90776945e-003 5.81903150e-003 7.93784205e-003
      6.79955306e-003 8.74041393e-003 6.77119894e-003 3.35246930e-003
      3.53393407e-004 2.67611118e-004 -1.31158624e-003 -5.10742480e-004
      -3.39868711e-003 -5.93908597e-003 -8.16116203e-003
      -7.43298046e-003 -6.35601534e-003 -5.66105172e-003
      -4.73571243e-003 -5.97783644e-003 -6.63944334e-003
      -8.12593568e-003 -3.55103612e-003 -2.92502320e-003
      -8.94678233e-004 -4.13356931e-004 7.10141845e-004 1.61525607e-003
      2.00243900e-003 2.41137412e-003 2.36533699e-003 1.30134041e-003
      -1.29306631e-003 -3.22654820e-003 -3.34105990e-003
      -1.50382274e-003 -1.02820410e-003 9.07530834e-004 3.98319727e-003
      4.47031157e-003 3.76021746e-003 1.61308178e-003 8.17860535e-004
      1.03076093e-003 1.24837051e-003 2.54465896e-003 3.63628380e-003
      3.01549188e-003 -7.64038472e-004 -6.63983962e-003 -5.09955874e-003
      -3.95308109e-003 4.23864974e-003 5.17172273e-003 6.66734995e-003
      5.98141365e-003 3.67488526e-003 1.87585119e-003 2.27999920e-003
      -3.92136816e-003 -5.43388817e-003 -9.23988782e-003
      -8.66954681e-003 -9.29164328e-003 -7.22363638e-003
      -8.02304875e-003 -1.30553897e-002 -1.23992674e-002
      -1.24155162e-002 -1.14979362e-002 -8.86614155e-003
      -6.55646389e-003 -3.28172813e-003 2.56698288e-004 3.20342556e-003
      2.95177638e-003 4.71607875e-003 4.21890197e-003 1.86504249e-003
      2.11673416e-003 1.96024682e-003 -2.20546863e-004 -9.28866328e-004
      6.72573922e-004 -4.61232528e-004 -1.14346010e-004 -1.32128783e-003
      -3.35340318e-003 -4.99144243e-003 -1.84458832e-003 3.80571029e-004
      -4.75714076e-003 -6.94148848e-003 -4.55291563e-004 2.36297981e-003
      8.12707189e-003 9.20465868e-003 7.88277388e-003 5.29555883e-003
      3.85717046e-003 2.85922294e-003 4.18029679e-003 6.10961951e-003
      6.56793406e-003 4.48123366e-003 9.59500298e-003 5.49352542e-003
      2.14759726e-003 1.85842009e-003 2.24977639e-003 1.04971370e-003
      1.65762322e-003 -9.34820739e-004 -5.68934996e-003 -8.59910902e-003
      -9.27239470e-003 -7.90127367e-003 -5.32050943e-003
      -5.78107825e-003 -5.79603342e-003 -6.89480221e-003
      -1.13158002e-002 -9.80765745e-003 -6.42621936e-003
      -5.00932150e-003 -1.31674041e-003 -1.28721446e-003
      -4.14182752e-004 8.59201245e-004 1.20335864e-003 9.31889052e-004
      1.25340780e-003 1.85681944e-004 -1.60420255e-003 -1.88976666e-003
      -4.49065301e-005 -1.33177522e-003 7.18525727e-004 2.77362973e-003
      6.54186297e-004 9.51075403e-004 7.63767399e-004 2.19589449e-003
      3.97314579e-004 1.16007973e-003 1.40591653e-003 2.21951399e-003
      -7.91888277e-004 -4.41923784e-003 -6.13746559e-003
      -4.64949245e-003 -2.80983187e-003 3.60573549e-003 6.26826240e-003
      6.46508951e-003 4.40271897e-003 4.95053316e-003 5.29557141e-003
      3.23857227e-003 -2.05812231e-003 -6.28263503e-003 -1.07189585e-002
      -9.14173760e-003 -9.34354495e-003 -8.94971006e-003
      -1.26833227e-002 -1.36491321e-002 -8.76279827e-003
      -9.11399536e-003 -1.28148729e-002 -1.37906605e-002
      -1.17535545e-002 -7.88513571e-003 -6.64769625e-003
      -3.15472810e-003 -1.87458610e-003 2.02788715e-003 5.47114154e-003
      2.49248859e-003 2.62799347e-003 3.48989805e-003 -6.48883171e-004
      -6.17182406e-004 1.28985138e-003 2.71660305e-004 1.63510093e-003
      -2.71988683e-003 -1.96065241e-003 -2.70219753e-003
      -1.96859380e-003 1.38404430e-003 -2.61301640e-003 -6.54413225e-003
      -4.70566517e-003 3.68079025e-004 3.02059273e-003 7.91561324e-003
      6.74286764e-003 4.41379519e-003 3.13926139e-003 3.12907621e-003
      5.43514639e-003 7.45574525e-003 4.82615270e-003 7.12269777e-003
      1.07814567e-002 6.44804863e-003 2.20599049e-003 1.70018978e-003
      1.85956771e-003 7.12802343e-004 2.27743736e-003 1.13459327e-003
      -4.15148912e-003 -5.96659118e-003 -7.73270102e-003
      -7.22754281e-003 -4.66617988e-003 -6.09345920e-003
      -7.52013177e-003 -8.63637030e-003 -1.12503432e-002
      -1.08369486e-002 -9.49272048e-003 -6.43437915e-003
      -4.41052252e-003 -1.16666029e-004 5.68794494e-004 2.70882476e-004
      2.48966506e-004 2.92751531e-004 9.42619110e-004 1.30540982e-003
      7.63411343e-004 9.00248415e-004 4.42414370e-004 -1.61901838e-003
      8.34465260e-004 1.08599837e-003 -8.92492535e-004 4.59953182e-004
      1.18751882e-003 2.67177355e-003 9.72615264e-004 -3.07426235e-004
      1.37881888e-003 -2.46420852e-003 -5.26530668e-003 -2.45127035e-003
      -2.09253514e-003 -3.06502031e-003 -9.47648878e-005 3.02946824e-003
      5.62621187e-003 3.81317036e-003 6.58874586e-003 6.99922442e-003
      1.05929095e-003 -6.64049014e-003 -7.36000529e-003 -7.07757426e-003
      -7.28876190e-003 -7.15920934e-003 -8.15255661e-003
      -9.06214584e-003 -1.60366911e-002 -1.10110603e-002
      -4.35879687e-003 -5.66875190e-003 -1.05132442e-002
      -1.16412807e-002 -1.27151115e-002 -1.05317067e-002
      -6.43412396e-003 -7.33519578e-003 -5.42007852e-003
      -2.68646306e-003 -3.09425476e-003 -8.84827925e-004 1.80753681e-003
      1.06068444e-003 3.86675994e-004 2.51112110e-003 1.35051424e-003
      3.17683863e-003 1.09040143e-003 -2.98622297e-003 -3.05322115e-003
      -3.53714661e-003 -2.12953961e-003 -5.55952429e-004
      -2.82161590e-003 -6.65562833e-003 -7.28851836e-003
      -3.28705786e-003 -1.01445965e-003 5.90635976e-003 4.76840744e-003
      2.79995450e-003 3.16413073e-003 4.56239842e-003 6.48334995e-003
      8.67261179e-003 7.27048842e-003 8.71724077e-003 1.14107998e-002
      6.76030200e-003 2.99933273e-003 2.93220114e-003 1.64030213e-003
      8.96535697e-004 2.05314602e-003 1.55028165e-003 -2.63645616e-003
      -4.77181841e-003 -5.94470603e-003 -7.28256162e-003
      -5.04680816e-003 -6.90512452e-003 -8.99891276e-003
      -9.24204662e-003 -9.93929710e-003 -8.78461916e-003
      -9.91125498e-003 -9.14202910e-003 -5.56731410e-003
      -2.19501485e-003 2.19635898e-003 2.02714861e-003 8.13092105e-004
      5.12062805e-004 2.13991175e-003 3.53866676e-003 4.11001127e-003
      3.10407556e-003 4.26514191e-004 -8.26499483e-004 1.60939374e-003
      1.89916708e-003 1.27370574e-003 2.69843335e-003 3.47651751e-003
      4.71288199e-003 1.01939775e-003 7.20089418e-004 2.90283642e-004
      -4.31724265e-003 -4.40139417e-003 9.24397667e-004 1.58033543e-003
      -1.02440373e-003 -2.36184438e-004 2.80307536e-003 6.47975132e-003
      5.49074728e-003 6.29466353e-003 3.67227104e-003 -6.52999058e-003
      -9.22593568e-003 -4.35170159e-003 -7.58243026e-004
      -2.22538481e-003 -1.12088595e-003 6.23381566e-005 -9.15150717e-003
      -8.57791677e-003 -5.88876521e-003 -2.54573976e-003 7.95622473e-004
      -3.99818644e-003 -4.58888104e-003 -8.22203513e-003
      -9.79930349e-003 -4.46434319e-003 -6.88065635e-003
      -9.65566467e-003 -4.00782982e-003 -1.86916592e-003
      -3.36540234e-003 -3.57927056e-003 -1.32363895e-003
      -1.18673197e-003 3.26115917e-003 5.04631596e-003 2.06949050e-003
      -5.68808871e-004 -3.21959169e-003 -3.27987829e-003
      -4.15777648e-003 -2.21377378e-003 5.21841575e-004 5.96784346e-004
      -2.93334923e-003 -4.62678215e-003 -3.93234845e-003
      -1.84561487e-003 1.08898955e-003 3.58154485e-003 3.36815696e-003
      3.53307324e-003 5.39556239e-003 7.54100177e-003 1.01427175e-002
      1.06264921e-002 1.10303480e-002 1.19493110e-002 7.91778695e-003
      4.79413662e-003 4.30739252e-003 3.98833025e-003 3.01646930e-003
      1.93532731e-003 2.42593954e-003 -9.00811050e-004 -2.25511845e-003
      -4.73799091e-003 -5.89907309e-003 -5.47951879e-003
      -5.30464202e-003 -6.81402534e-003 -7.63830263e-003
      -8.66383780e-003 -7.96284433e-003 -9.43015050e-003
      -9.78685357e-003 -6.87916763e-003 -5.18935174e-003 1.31187437e-003
      3.51732341e-003 2.72231991e-003 2.29317229e-003 3.86432512e-003
      5.34642022e-003 5.57490531e-003 4.47031669e-003 1.49901328e-003
      1.55408852e-004 1.31083257e-003 3.31635447e-003 3.77785088e-003
      3.50864464e-003 4.34438512e-003 5.12296334e-003 1.90163695e-003
      3.25024012e-003 3.73926060e-003 1.60365121e-003 2.57640175e-004
      2.29401095e-003 2.64534005e-003 -1.76056032e-003 -4.54247510e-003
      -2.34651519e-003 2.29566474e-004 1.29833689e-003 -2.13938416e-003
      -3.37509927e-003 -5.64586930e-003 -4.53625573e-003 2.46161153e-003
      -2.78371590e-004 5.12568397e-004 3.89546301e-004 5.81306580e-004
      -9.90203116e-003 -9.41758230e-003 -6.31996803e-003
      -5.08171087e-003 1.51135071e-004 -2.58494797e-003 -1.69176003e-003
      -1.52933132e-003 -8.24516453e-003 -4.94130142e-003
      -1.78667495e-003 -3.46528273e-003 -5.32104168e-003 1.31360721e-003
      4.70941653e-003 -3.07446485e-003 -5.22993971e-003 -4.86592669e-003
      -1.97029393e-003 1.32023985e-003 1.91120710e-003 -2.14270753e-004
      -1.82166835e-003 -4.04241960e-003 -2.82136677e-003
      -1.89597998e-003 -4.94574488e-004 -2.69204465e-004
      -3.14294104e-003 -4.36000619e-003 -4.76869894e-003
      -3.36932624e-003 -2.60838331e-003 2.08644615e-003 2.76150950e-003
      2.91880080e-003 5.15040942e-003 8.42486694e-003 1.10912155e-002
      1.11755924e-002 1.22132152e-002 1.16842967e-002 6.83965022e-003
      4.25261538e-003 4.08429420e-003 3.50925559e-003 1.78525574e-003
      3.79214180e-004 3.14542395e-003 5.43842791e-004 -9.88209038e-004
      -4.00162861e-003 -4.86998726e-003 -3.54536832e-003
      -2.86234706e-003 -5.29625965e-003 -7.54459342e-003
      -8.00487772e-003 -8.65588244e-003 -8.48056003e-003
      -8.54662154e-003 -7.13096326e-003 -4.65995772e-003
      -1.81475503e-003 3.13514750e-003 4.06469172e-003 4.68345080e-003
      6.10816712e-003 7.21355621e-003 7.40670878e-003 5.70033956e-003
      1.89301709e-003 1.28961774e-003 2.75404938e-003 3.91439069e-003
      3.41563812e-003 2.22540111e-003 3.97429802e-003 5.64947771e-003
      4.21416573e-003 5.65635459e-003 6.50641415e-003 3.82302748e-003
      -1.58404247e-004 -4.23689984e-004 -2.14203913e-003
      -1.91072864e-003 -2.34001479e-003 -2.95339129e-003 3.36867117e-004
      -9.12120682e-004 -6.93896273e-003 -4.32151865e-004
      -3.54030379e-003 -3.44291748e-003 -6.55190495e-004
      -2.06528255e-003 -1.25125353e-003 2.08147662e-003 -2.57981010e-003
      -9.95752774e-003 -9.25441831e-003 -1.09610111e-002
      -8.92488193e-003 -6.69490080e-003 -1.77339127e-003 1.59057265e-003
      2.53323792e-003 -2.00338732e-003 -3.09774023e-003 -4.92156576e-003
      -1.36937958e-003 -3.02422472e-004 -8.55021877e-004 2.79467134e-003
      6.25730958e-004 -3.89117841e-003 -5.75422542e-003 -1.97747489e-003
      -3.33814358e-004 2.27622152e-003 -5.40022855e-004 -3.83290020e-003
      -5.06755291e-003 -1.52027979e-003 -1.07766781e-003 9.85542662e-004
      -4.40826348e-004 -3.90260946e-003 -7.22348318e-003
      -6.13780227e-003 -4.85575246e-003 -3.88942240e-003 1.59958715e-003
      2.86720879e-003 3.78486840e-003 6.15404779e-003 8.56451783e-003
      1.04692522e-002 9.36690532e-003 1.09911226e-002 9.86395590e-003
      4.18613106e-003 2.60060723e-003 2.63463543e-003 2.05334043e-003
      7.05159095e-004 -1.00126059e-003 3.60308005e-003 1.68438395e-003
      5.95086371e-004 -6.94959890e-004 -1.08914892e-003 -1.17203663e-003
      -1.43658614e-003 -2.95793219e-003 -4.66812076e-003
      -6.79419376e-003 -8.07207916e-003 -7.99353980e-003
      -7.83395302e-003 -5.44922100e-003 -3.39489407e-003
      -1.75477669e-003 3.46403616e-003 3.93120572e-003 5.18875103e-003
      6.72606938e-003 7.53683457e-003 7.49498839e-003 5.45173744e-003
      3.41238431e-003 2.86065228e-003 4.51698201e-003 3.97577183e-003
      3.72946099e-003 2.87599093e-003 5.02774213e-003 8.17440171e-003
      7.29020778e-003 7.71496678e-003 5.31187141e-003 8.24911229e-004
      -9.53814597e-004 -1.88987423e-003 -3.44351074e-003
      -9.95241455e-004 2.37771007e-003 -3.94842209e-004 -1.20520964e-003
      -5.69893187e-003 -6.98768813e-003 -2.68438342e-003
      -3.41261318e-003 -4.62735072e-003 -1.77880144e-003
      -8.57345934e-004 3.80465703e-004 -7.54815701e-004 -6.92658778e-003
      -9.78903007e-003 -1.21637769e-002 -1.39785334e-002
      -8.51611514e-003 -5.46416827e-003 -3.62297287e-003 9.85100633e-004
      2.31411308e-003 1.98244862e-003 3.50261107e-003 -8.23908078e-004
      -3.40404548e-003 -2.85524130e-003 -1.95596041e-003 5.10025013e-004
      4.69997339e-003 5.67326881e-003 6.95712632e-004 1.78845949e-003
      3.52718425e-003 7.07801851e-003 2.15061684e-003 1.07583485e-003
      -5.98741835e-003 -5.42234723e-003 -1.16483262e-003 2.81594926e-003
      1.89375214e-003 -3.70870344e-003 -9.00123827e-003 -7.55935349e-003
      -6.20452641e-003 -6.50686910e-003 1.71628851e-003 2.54105753e-003
      3.47388466e-003 5.61159523e-003 7.79005885e-003 8.74540769e-003
      7.32214842e-003 8.56886059e-003 8.08657240e-003 1.10470061e-003
      -6.51827315e-004 -2.62372865e-004 -4.96145396e-004
      -1.14215189e-003 -1.90168375e-003 3.80708720e-003 2.82521755e-003
      3.00266291e-003 2.32468685e-003 3.79626814e-004 -6.57916127e-004
      -8.67253053e-004 -1.11797580e-003 -2.27156910e-003
      -4.89304308e-003 -6.31497754e-003 -7.39990640e-003
      -7.50631373e-003 -5.38552599e-003 -4.03475529e-003
      -3.04091582e-003 1.72005361e-003 3.37934773e-003 5.96414274e-003
      6.90441718e-003 7.44584249e-003 7.21684052e-003 6.33258466e-003
      3.80783062e-003 2.40966980e-003 4.35164757e-003 3.51922959e-003
      3.76346312e-003 4.15698579e-003 6.91779424e-003 1.11151179e-002
      1.08585870e-002 5.99865383e-003 2.94751232e-003 -2.07229779e-004
      -2.74529960e-003 -3.18937376e-003 -3.36227706e-003
      -2.80379225e-003 -1.97955640e-004 1.53395988e-003 -2.74445559e-003
      -7.55728362e-003 -7.67221069e-003 -2.81397603e-003
      -2.20061140e-003 -3.94718256e-003 -1.96972722e-003
      -3.00059211e-003 2.62563059e-004 -2.06614379e-004 -4.50238492e-003
      -5.77141251e-003 -1.03147859e-002 -1.41497599e-002
      -1.01065654e-002 -6.68999134e-003 -7.15987477e-003
      -2.37405580e-003 -1.15850091e-003 4.51357476e-003 3.77542153e-003
      5.29815303e-003 1.90719543e-003 -8.71710727e-005 8.95698206e-004
      -2.50296737e-003 -7.02324323e-005 7.68939778e-003 6.59631006e-003
      4.45111515e-003 5.59315085e-003 8.72468203e-003 5.93746034e-003
      4.82197898e-003 -1.63481326e-003 -4.84299846e-003 -3.93186510e-003
      -7.85384259e-007 -2.97409832e-003 -6.86889188e-003
      -1.03982529e-002 -9.27795004e-003 -8.71313270e-003
      -8.38955399e-003 -1.98511779e-003 4.49768966e-004 1.82258419e-003
      4.55511874e-003 6.68559829e-003 7.81462621e-003 5.29442821e-003
      5.63624548e-003 5.30221453e-003 -6.00248983e-004 -1.26302033e-003
      -7.41817057e-004 -1.49249332e-003 -1.66584831e-003
      -2.66288174e-003 3.95641243e-003 2.95537408e-003 1.89413375e-003
      2.79881293e-003 2.17550015e-003 6.57126890e-004 8.01913498e-004
      6.48599871e-006 -1.20627007e-003 -3.26534919e-003 -5.35161188e-003
      -5.17546665e-003 -6.22456521e-003 -5.60707506e-003
      -5.11908578e-003 -5.32214344e-003 -1.65131653e-003 1.72932632e-003
      4.75859689e-003 7.26217497e-003 6.51528081e-003 6.33365614e-003
      6.51775999e-003 2.67876917e-003 1.33963383e-003 3.04704951e-003
      2.07731524e-003 4.13120585e-003 5.84611669e-003 6.97082421e-003
      9.26524308e-003 1.00947805e-002 3.21309199e-003 -2.01864564e-003
      -1.64386060e-003 -2.98175542e-003 -5.12810936e-003
      -4.39749751e-003 -3.74529674e-003 3.78231634e-004 2.69517489e-003
      -2.58621597e-003 -5.16286818e-003 -1.76515407e-003 4.91971325e-004
      -3.14837508e-003 -3.18105333e-003 -1.60143815e-003
      -4.19862103e-003 -1.07263227e-003 -1.39137928e-003
      -6.86893426e-003 -6.94485381e-003 -9.81399883e-003
      -1.35560092e-002 -1.01603698e-002 -1.11697894e-002
      -1.14696566e-002 -8.15508142e-003 -7.58815743e-003 2.32643820e-003
      1.60227693e-003 5.40835503e-003 6.20470382e-003 4.39385604e-003
      9.27245803e-003 7.27460673e-003 7.71923689e-003 5.42748347e-003
      6.07564207e-003 3.55734699e-003 5.16997743e-003 1.02783907e-002
      5.85252838e-003 2.93686567e-003 9.90035827e-004 7.41855532e-004
      -1.04344264e-003 -8.51891749e-003 -7.59776123e-003
      -5.78823965e-003 -8.01524986e-003 -9.60474927e-003
      -1.00208204e-002 -1.00979432e-002 -5.14475303e-003
      -1.17306120e-003 5.13118401e-004 2.70248880e-003 4.26299637e-003
      4.13573068e-003 2.28130817e-003 3.00201331e-003 3.59597709e-003
      -4.23132675e-004 -1.75139657e-003 -1.01345847e-003
      -2.71938532e-003 -1.93921255e-003 -1.76292832e-003 3.04803066e-003
      1.97495590e-003 8.88484763e-004 1.22376892e-003 2.78313155e-003
      2.28587002e-003 7.87127356e-004 5.91172429e-004 -6.63844286e-004
      -1.73013797e-003 -4.19916492e-003 -4.98759514e-003
      -6.45271456e-003 -5.46832895e-003 -5.20007405e-003
      -4.51028487e-003 -1.80064084e-003 1.18254311e-003 3.31813702e-003
      7.02055451e-003 6.12529786e-003 5.72111877e-003 4.71806526e-003
      1.34830095e-003 -1.29962282e-003 -8.56115439e-005 -2.50694604e-004
      2.69996142e-003 3.30355531e-003 3.96640599e-003 4.91775712e-003
      5.82872331e-003 4.29911335e-004 -2.82185967e-003 -1.09840685e-003
      -8.26290983e-004 -3.96297360e-003 -3.55052389e-003
      -3.32726073e-003 9.19549435e-004 1.63818221e-003 2.10478727e-004
      5.13665553e-004 6.08956814e-003 6.21933816e-003 1.00652734e-002
      6.14206772e-003 3.20142438e-003 -4.47125378e-004 4.88798541e-004
      -1.52169750e-003 -5.02390787e-003 -9.20452701e-004
      -2.09789863e-003 -6.36557816e-003 -7.13044871e-003
      -9.82463825e-003 -1.07894344e-002 -1.30021088e-002
      -1.28623191e-002 -7.43521564e-003 -1.93320983e-003 2.11505173e-003
      6.05596276e-003 9.97183286e-003 1.05865933e-002 6.66186213e-003
      8.12771078e-003 4.91341297e-003 5.92837064e-003 5.29370643e-003
      4.39040177e-003 9.80347954e-003 1.03382049e-002 6.06945949e-003
      5.97230333e-004 1.07176602e-003 6.18169317e-004 -4.39079665e-003
      -9.34835058e-003 -2.59706704e-003 -5.05456142e-003
      -8.41483846e-003 -9.76743922e-003 -1.24923084e-002
      -8.00777972e-003 -1.05109508e-003 -1.17889862e-003
      -3.36353056e-004 1.11461629e-003 2.18126900e-003 6.39957434e-004
      6.64920895e-004 1.09773339e-003 -9.05155553e-004 -2.66717165e-003
      -2.61735753e-003 -4.37647896e-003 -3.16392258e-003
      -1.52885343e-003 5.10012731e-004 3.16866412e-004 1.14563294e-003
      1.93335419e-003 2.90500093e-003 3.24637489e-003 2.87631829e-003
      2.55594729e-003 1.61976449e-003 -4.49795218e-004 -1.91791519e-003
      -3.69312544e-003 -5.87466499e-003 -4.80262144e-003
      -4.54533799e-003 -3.57726356e-003 -7.74398213e-004 1.86362409e-003
      2.85246153e-003 6.32145675e-003 8.17287248e-003 7.01547507e-003
      3.77339567e-003 7.10633292e-004 -2.39072624e-003 -2.15017865e-003
      -1.80531375e-003 5.87093236e-004 4.54872556e-004 2.47430312e-003
      3.93960066e-003 3.86697054e-003 3.19319754e-003 1.33805501e-003
      -2.66449060e-004 -1.29267818e-003 7.13166664e-004 1.61584013e-003
      4.99412511e-003 3.29557946e-003 1.30509085e-004 2.28662728e-004
      3.48254712e-003 1.07895806e-002 1.34370616e-002 1.34973703e-002
      8.92377645e-003 7.50568183e-003 7.78712623e-004 3.96812195e-003
      1.58402964e-003 -3.93142737e-003 4.74079745e-003 3.99751635e-003
      -4.78246296e-003 -7.77561078e-003 -7.99924601e-003
      -5.99572761e-003 -8.99689272e-003 -1.26907220e-002
      -7.25149410e-003 -4.42295615e-003 1.00030529e-003 4.69257310e-003
      3.94989969e-003 4.26925672e-003 2.82519404e-003 3.62980925e-003
      4.01960732e-003 4.05357545e-003 4.82032215e-003 4.29394189e-003
      9.77737643e-003 1.07426262e-002 7.11718807e-003 -7.33275316e-004
      -2.89207615e-004 1.55019981e-004 1.03723106e-003 -4.43768688e-004
      -4.63769911e-003 -4.02887817e-003 -7.36629497e-003
      -7.81843252e-003 -1.00932680e-002 -5.27788652e-003
      -1.24709331e-004 -2.19609283e-004 4.32996894e-004 1.13161409e-003
      9.13586642e-004 9.47539113e-004 -1.13543798e-003 -6.32171461e-004
      -1.52411102e-003 -3.62977851e-003 -5.93816815e-003
      -5.81217697e-003 -3.53219034e-003 -1.03075663e-003 2.20576956e-004
      -1.29338368e-004 1.10650982e-003 2.12597521e-003 2.53996020e-003
      3.15233809e-003 3.35280341e-003 2.36287294e-003 5.88551513e-004
      -9.89857013e-004 -2.89486186e-003 -2.90116598e-003
      -4.85819951e-003 -4.47339565e-003 -4.48102318e-003
      -3.24902148e-003 1.95390778e-004 2.56966357e-003 1.87007000e-003
      4.09456994e-003 7.09225889e-003 6.59677573e-003 3.59714776e-003
      4.39579278e-004 -3.06080841e-003 -2.50582281e-003 -2.02911603e-003
      -5.78893349e-004 3.03529319e-003 5.12460247e-003 4.63103876e-003
      1.59778155e-003 3.33223492e-003 2.04054755e-003 1.14585599e-003
      -6.56803240e-005 3.04389675e-003 3.35592008e-003 3.80566507e-003
      -1.83603796e-003 -3.87540529e-003 -4.38888528e-004 7.35395541e-003
      9.95405391e-003 1.21336570e-002 6.82129525e-003 1.79532031e-003
      -1.00279064e-003 -7.89219607e-003 -2.31553894e-003
      -9.35964272e-005 -3.15024029e-003 6.67031994e-003 5.38743054e-003
      -1.47861824e-003 -8.81181285e-003 -6.60254760e-003
      -5.56581281e-003 -2.87407637e-003 -8.32588226e-003
      -6.17076037e-003 -4.96032694e-003 -1.74663891e-003 9.56499425e-004
      2.94408668e-003 3.05394502e-003 -1.04846281e-003 5.67428477e-004
      1.23185443e-003 3.37309111e-003 1.63029507e-003 3.96828726e-003
      8.92500486e-003 9.10327584e-003 7.54736876e-003 2.17523403e-003
      6.29108632e-003 4.98287333e-003 5.32940682e-003 6.31017378e-003
      6.30915310e-005 -5.03826095e-003 -6.01016171e-003 -5.67965629e-003
      -6.86002523e-003 -3.36046563e-003 3.47785332e-004 3.11407202e-004
      8.99302599e-004 6.88897213e-004 -2.11296167e-004 -4.66446712e-004
      -7.20371027e-004 -2.41820770e-003 -3.45266587e-003
      -6.55226316e-003 -3.59864510e-003 2.34675375e-004 1.97324832e-003
      5.41841099e-003 1.65749632e-003 1.74480816e-003 2.20029894e-003
      2.87035992e-003 3.27257509e-003 3.37969977e-003 3.23453802e-003
      1.87356875e-003 -3.04012763e-004 -2.29498465e-003 -3.63300089e-003
      -3.88660957e-003 -4.83717723e-003 -5.60585968e-003
      -5.64684579e-003 -5.06605627e-003 -3.16520710e-003
      -2.10733255e-004 -1.38459654e-004 7.79599417e-004 3.15397861e-003
      4.59080096e-003 3.40072718e-003 -1.14711490e-003 -5.09613566e-003
      -3.41411959e-003 -4.48223716e-003 -1.61239365e-003 5.86359296e-004
      3.09031387e-003 3.55270319e-003 -1.21167395e-003 -3.91063106e-004
      7.79219612e-004 -1.95939559e-003 -3.28663131e-003 6.43114443e-004
      3.22138844e-003 1.60534959e-003 -2.60674022e-003 -3.46885202e-003
      -2.20272271e-003 1.88805070e-003 4.83379140e-003 4.79419297e-003
      5.10589511e-004 -4.55597386e-004 -1.53275032e-003 -3.07284389e-003
      -3.81421181e-003 -4.67424141e-003 -6.91769179e-003 2.44138739e-003
      3.76615440e-003 5.77837753e-004 -5.49554266e-003 -8.44360329e-003
      -4.64201672e-003 -3.22907418e-003 -9.74825677e-003
      -8.14590510e-003 -4.09627194e-003 -7.60215044e-004 3.29494156e-004
      -6.18934457e-004 3.97492247e-003 8.76936712e-004 1.71968725e-003
      4.60819923e-004 8.68657080e-004 2.13353452e-003 2.89043738e-003
      8.80610384e-003 1.05336290e-002 8.16592947e-003 5.27186226e-003
      7.85261672e-003 8.36830493e-003 5.41772787e-003 5.23872999e-003
      3.88570339e-003 -3.95865180e-003 -4.61537065e-003 -4.73908102e-003
      -6.44346001e-003 -4.03376808e-003 -6.82311365e-005
      -4.99899790e-004 -8.52222089e-004 7.48530903e-004 8.14598170e-004
      1.90174556e-004 -1.37471559e-003 -3.37720290e-003 -5.62674738e-003
      -1.65530713e-003 1.21343292e-004 -1.57296763e-005 1.63086108e-003
      4.11489792e-003 2.13632849e-003 1.32377038e-003 1.44212949e-003
      2.12773844e-003 2.54416722e-003 3.26530286e-003 2.51830858e-003
      1.12244557e-003 -7.33555702e-004 -2.11485871e-003 -2.97834305e-003
      -2.88043404e-003 -3.00893001e-003 -4.14178940e-003
      -3.77347181e-003 -4.19602869e-003 -1.85371318e-003 1.23216421e-004
      1.31202862e-003 1.91230699e-003 2.04011379e-003 2.44318880e-003
      3.13880923e-003 2.94700421e-005 -3.33731598e-003 -3.17812222e-003
      -3.20493802e-003 -9.04914574e-004 1.40398776e-003 4.49004257e-003
      6.78112870e-003 2.42854771e-003 2.05164379e-003 3.04981484e-003
      -2.42337538e-003 -4.76998556e-003 -2.12742900e-003 2.95586698e-003
      3.74139077e-003 -1.60802738e-003 -3.70325521e-003 -4.19828156e-003
      2.11630511e-004 2.82756845e-003 6.51284307e-003 2.55106529e-003
      -4.97905910e-003 -2.68662092e-003 -5.79731027e-003
      -5.87393017e-003 -6.07219059e-003 -4.42333752e-003 8.49644188e-004
      3.57660372e-003 -7.91268467e-005 -3.22985044e-003 -3.49336746e-003
      -2.15582526e-003 -7.75097811e-004 6.44007756e-004 -2.31483136e-003
      -2.11474486e-003 -2.64259079e-003 -2.98092933e-003
      -4.05888632e-003 -1.51445821e-003 -2.11100280e-003
      -1.82068814e-003 -4.61009564e-004 1.44980440e-003 -5.82633249e-004
      4.09195060e-003 6.67593302e-003 1.07776336e-002 7.98747409e-003
      -4.34570247e-004 7.05814129e-003 5.52873407e-003 4.76785377e-003
      4.23645973e-003 3.03231715e-003 3.55920638e-004 -6.23402279e-003
      -3.81738250e-003 -4.19804733e-003 -1.16667827e-003 2.79619568e-003
      1.17306598e-003 -8.82895911e-005 7.83474476e-004 1.51342433e-003
      -1.65568292e-003 -6.20091427e-003 -5.15711447e-003
      -7.62849534e-003 -3.28052440e-003 -5.21153619e-004
      -6.31167728e-004 8.30808887e-004 3.61443451e-003 1.16610096e-003
      -1.07185653e-004 -2.96742044e-004 1.23584946e-003 1.16599130e-003
      8.04673706e-004 1.66515377e-003 -9.01294290e-004 -1.43472385e-003
      -2.54499051e-003 -2.72001117e-003 -1.77301478e-003
      -1.46105827e-003 -2.09730584e-003 -1.76632986e-003
      -2.27941736e-003 8.20470974e-004 6.24068431e-004 1.65096484e-003
      8.37511732e-004 -9.98411444e-004 -2.02298118e-003 -2.26110078e-005
      6.55832642e-004 -2.17546476e-003 -3.00935400e-003 -2.25303834e-003
      -1.28759514e-003 5.68949326e-004 3.53658292e-003 5.30218100e-003
      3.93807050e-003 1.77204679e-003 2.71722162e-003 -4.51255916e-003
      -2.45993305e-003 -2.31993312e-004 2.83028162e-003 5.69261750e-003
      3.06235184e-003 -3.06315254e-003 -1.86986022e-003 2.59206467e-003
      3.69013660e-003 6.90819230e-003 9.61699244e-003 2.55300640e-003
      -3.01883876e-004 -5.23376046e-003 -5.30609861e-003
      -5.35419164e-003 -6.48292014e-003 1.23358530e-003 1.17225607e-003
      -2.18280265e-003 -7.84922391e-003 -7.03802379e-003
      -4.53802198e-003 -2.07827194e-003 6.24442589e-004 1.05464912e-003
      -1.82064553e-003 -2.05394393e-003 2.99353240e-004 -3.81808286e-003
      -6.65877759e-003 -3.93530494e-003 -3.84470285e-003
      -4.90786228e-003 -2.05740239e-003 3.29364697e-003 7.66629819e-003
      5.64698363e-003 1.07401833e-002 7.66335987e-003 -1.18906656e-003
      4.52043395e-003 3.59924650e-003 3.68235679e-003 3.49249481e-003
      1.79773115e-003 1.07054925e-003 -2.00417452e-003 -5.97810792e-003
      -4.95801028e-003 -6.48290734e-004 2.65555526e-003 2.88051949e-003
      2.59573804e-003 3.58077209e-003 3.77953518e-003 2.44029122e-003
      -1.75899290e-003 -4.44377493e-003 -5.94407879e-003
      -1.46941899e-003 2.77444068e-003 3.29122413e-003 3.56223783e-003
      4.90892585e-003 -1.18342589e-003 -1.77246938e-003 -1.49780023e-003
      4.38525516e-004 6.04302855e-004 2.35626649e-004 6.90657529e-004
      -4.52756300e-004 -1.35252345e-003 -3.60127818e-003
      -3.62109253e-003 -2.25271820e-003 -7.76789035e-004
      -1.14083476e-003 -2.24009994e-003 -2.26458092e-003 1.25933427e-003
      1.60188961e-003 1.39665068e-003 2.25642929e-004 -1.70295569e-003
      -2.97218421e-003 -2.35833274e-003 -7.65314850e-004
      -7.93778454e-004 -2.11162819e-003 -4.61028598e-004
      -1.97949843e-003 -9.13713011e-004 1.87466247e-003 5.44050708e-003
      4.25994908e-003 2.41025584e-003 3.99193401e-003 -3.25472909e-003
      -1.96371996e-003 2.28687120e-003 3.03168618e-003 4.00874158e-003
      7.51294661e-004 -5.07800258e-004 6.48508314e-004 1.49760896e-003
      4.18301858e-003 6.89910864e-003 1.09576164e-002 1.24099227e-002
      4.65624873e-003 -2.56538368e-003 -4.72513726e-004 -1.93884550e-003
      -2.86723115e-003 1.75729406e-003 3.10744368e-003 5.06041979e-004
      -9.49741341e-003 -6.70267362e-003 -2.71575223e-003
      -3.13840597e-003 -8.05407017e-003 -6.24062074e-003
      -6.43294724e-003 -6.73210016e-003 -1.51323574e-003 2.34154961e-003
      -4.85490076e-003 -2.94034951e-003 -1.39599969e-003
      -3.90114496e-003 -4.18020226e-003 3.55655211e-003 8.99632089e-003
      1.17052812e-002 1.45680802e-002 1.19695887e-002 -1.26301765e-003
      6.30793278e-004 3.95808741e-003 2.04327772e-003 -5.78080770e-004
      -3.24740628e-004 -1.56398187e-003 -2.62664119e-003
      -2.53960653e-003 -4.49461117e-003 6.40837592e-004 3.86831956e-003
      3.99270374e-003 3.30757140e-003 2.59688939e-003 3.93707817e-003
      4.61508101e-003 2.98834901e-004 -4.98165330e-003 -3.70111573e-003
      8.46272276e-004 5.80308586e-003 6.03799615e-003 4.44907928e-003
      6.04586815e-003 -1.02324435e-003 -1.27772486e-003 -1.01097568e-003
      1.64922705e-004 1.26763899e-003 1.08493562e-003 1.85082236e-003
      6.41237944e-004 2.00966038e-004 -2.02403753e-003 -4.23840899e-003
      -5.04970271e-003 -1.78870978e-003 -2.00376823e-003
      -2.14589178e-003 -1.68291258e-003 -3.28408508e-003
      -3.57121974e-003 -1.04255567e-003 6.77079021e-004 -1.61292008e-003
      -2.66474788e-003 -2.64023500e-003 -1.46646274e-003 2.58455431e-004
      -1.50410610e-003 -7.91794795e-004 -2.20792601e-003
      -1.21685654e-004 8.93787539e-004 3.51179927e-003 4.11359826e-003
      2.81070918e-003 4.43729013e-003 -3.06462985e-003 -1.04445824e-003
      1.13408058e-003 2.77087698e-003 1.89019355e-003 1.52217317e-003
      2.86829600e-004 2.14534416e-003 4.11846815e-003 2.67251511e-003
      5.60118444e-003 5.99105516e-003 8.57046898e-003 4.20457125e-003
      -2.30075372e-003 -2.13160711e-005 -5.32813789e-003
      -6.23436086e-003 3.48998839e-003 7.13698938e-003 4.10473719e-003
      -1.05428824e-003 -2.58581014e-003 -5.39330831e-005
      -4.06543165e-003 -4.93476633e-003 -3.94565240e-003
      -5.71110658e-003 -8.87480564e-003 -2.09962670e-003 2.86850310e-003
      1.16126426e-003 1.69491721e-003 2.26278527e-004 -2.17285380e-003
      -6.07026229e-003 -1.64349494e-003 4.76233289e-003 4.36712522e-003
      7.42164580e-003 9.37022734e-003 2.12548836e-003 3.27255530e-003
      3.01822391e-003 2.06104107e-003 2.71940895e-004 -1.25023059e-003
      -2.95634265e-003 -1.76704372e-003 -4.10807348e-004 6.26065303e-004
      3.84086114e-003 6.12748740e-003 4.45066532e-003 4.44723433e-003
      3.31314979e-003 2.68869149e-003 4.15155943e-003 1.27457757e-003
      -5.01824403e-003 -2.71917274e-003 3.09466338e-003 8.85784440e-003
      6.56655990e-003 3.65980156e-003 6.24710601e-003 -1.81988475e-003
      -1.45097950e-003 -2.30377427e-005 1.46850816e-003 2.43917527e-003
      3.46179027e-003 3.91965127e-003 2.24611396e-003 1.17508454e-004
      -1.79295242e-003 -3.16173281e-003 -5.89494780e-003
      -2.96381256e-003 -2.95437011e-003 -1.08516461e-003
      -2.47992366e-003 -2.40054610e-003 -5.05274802e-004 8.55298014e-004
      9.72054433e-004 -3.83308507e-004 -1.02844229e-003 -6.43442268e-004
      -1.36893697e-003 -1.25939620e-003 -3.48423235e-003 6.14923891e-004
      1.19064620e-003 1.80640421e-003 1.94187474e-003 -1.19559478e-003
      1.06288039e-003 7.32836837e-004 1.16320478e-003 -5.54667041e-003
      -2.07666378e-003 1.72605796e-003 6.33533997e-003 8.84699170e-003
      1.04283253e-002 8.12941324e-003 9.26065817e-003 4.76767775e-003
      3.25376913e-003 2.95034796e-003 3.97227006e-003 4.47231438e-003
      2.40477268e-003 -1.93486316e-003 1.43106200e-003 1.59900344e-003
      -5.99707104e-003 -4.16384870e-003 6.16667094e-003 8.38186685e-003
      6.16457406e-003 4.27558646e-003 4.09696763e-003 3.34857800e-003
      9.32087936e-003 7.16914795e-003 2.24960968e-003 -3.28396866e-003
      -6.50837133e-003 -2.05698749e-003 2.27187620e-003 3.13205249e-003
      -2.90760421e-003 -6.42303098e-003 -7.97708333e-003
      -4.31274530e-003 6.41289679e-003 4.09737433e-004 -8.70285847e-004
      -4.95566754e-004 7.70495459e-003 8.32108501e-003 2.86608818e-003
      1.44153577e-003 1.05852995e-003 -1.54130510e-003 -4.20270208e-003
      -1.82966096e-003 5.63783571e-004 6.34360826e-003 7.10240938e-003
      8.30954872e-003 6.83751656e-003 6.66837860e-003 6.34875940e-003
      4.47085407e-003 4.27923026e-003 1.41982606e-003 -5.09500550e-003
      -1.54794438e-003 2.80422415e-003 5.94519312e-003 5.04975952e-003
      4.72630234e-003 5.23875188e-003 -2.53122207e-003 -8.04517244e-004
      1.88348559e-003 4.55656042e-003 5.24383597e-003 5.17395837e-003
      6.35955995e-003 6.63920166e-003 5.34021109e-003 2.61115422e-003
      3.24623747e-004 -1.35078642e-003 -1.18886252e-004 -5.99921274e-004
      7.25678983e-004 -1.33051805e-003 -9.84800747e-004 1.63569173e-004
      2.76352325e-003 2.35576648e-003 5.00346534e-004 8.42175796e-005
      -5.49754710e-004 -1.18411938e-003 6.77271688e-004 -4.05991171e-003
      1.04606769e-003 6.38964877e-004 2.29300256e-003 1.89220021e-003
      -5.07985305e-006 1.24683592e-003 6.83275633e-004 1.97128998e-003
      -4.43612970e-003 -3.18008219e-003 -4.82642819e-004 4.39767074e-003
      1.00830980e-002 9.54668038e-003 3.70823801e-003 3.42257158e-003
      3.41991172e-003 3.28888628e-003 5.22819068e-003 7.28495093e-003
      4.76661650e-003 1.67443615e-003 3.17878439e-004 2.60678795e-003
      2.44475505e-003 -2.15068855e-003 -3.29986610e-003 -5.21416496e-003
      -3.57176090e-004 9.82335769e-004 1.44036429e-003 2.39058584e-003
      6.44115126e-003 1.04315262e-002 1.38256513e-002 7.51658343e-003
      1.23545912e-003 9.82228667e-004 5.94055373e-003 5.19836880e-003
      1.73955353e-003 -2.65423511e-003 -1.03180464e-002 -1.18630212e-002
      -1.09664199e-003 3.01300199e-003 -1.23336923e-003 -4.89786209e-004
      3.55768297e-003 3.56741762e-003 3.94172128e-003 3.32474243e-003
      3.34798824e-003 6.90572051e-005 -4.97784419e-003 -4.46258858e-003
      3.03202614e-005 5.04831458e-003 7.93477707e-003 1.57413760e-003
      -3.27337766e-003 4.70686983e-003 6.39168546e-003 6.16463833e-003
      4.22221469e-003 2.98447977e-003 -9.49407549e-005 -7.09054573e-003
      -5.43635525e-003 -5.97797567e-004 4.43044258e-003 4.64901235e-003
      5.30742574e-003 6.38425257e-003 -3.24865198e-003 8.70227756e-004
      3.29833128e-003 4.94528096e-003 5.83373941e-003 5.82371559e-003
      6.17064629e-003 5.71037410e-003 5.14441216e-003 4.35491744e-003
      2.96427053e-003 -5.20560076e-004 3.93560680e-004 2.30201244e-004
      3.98455042e-004 -1.43555866e-003 -1.97172770e-003 -1.66038238e-003
      3.57658835e-003 4.04080190e-003 2.22575548e-003 -5.66762406e-004
      -1.69137109e-003 -1.93095114e-003 -2.32896232e-003
      -6.52978197e-003 -1.82146498e-003 -1.23557472e-003 2.22513848e-003
      3.64584313e-003 3.18682031e-003 3.40374350e-003 2.10975483e-003
      2.55447999e-003 -1.71328208e-003 9.79109202e-004 -3.07666766e-003
      2.42492091e-003 4.25503543e-003 4.92597232e-003 4.82385745e-003
      7.00991973e-003 7.04922201e-003 7.58667476e-003 1.09045804e-002
      1.32042449e-002 1.03771891e-002 4.95346868e-003 9.52690933e-003
      5.23480820e-003 1.32700626e-003 -1.79873314e-003 -2.17320910e-003
      -7.16265198e-003 -6.78923633e-003 -8.07971042e-003
      -4.95666405e-003 -8.24566814e-004 4.90351953e-003 4.69936151e-003
      6.46194257e-003 4.97146975e-003 4.06607473e-003 2.27812096e-003
      5.02071390e-003 5.15089743e-003 3.47907702e-003 2.48567690e-003
      4.56812617e-004 -6.91414112e-003 -3.65192676e-003 -3.95512814e-003
      -3.66412103e-003 7.40656804e-004 4.63204831e-003 4.27683117e-003
      2.55187717e-003 2.48357607e-003 1.91371946e-003 9.43915278e-004
      -1.64645398e-003 -3.50349024e-003 3.31086194e-004 8.22872948e-003
      9.01657157e-003 2.29073199e-003 1.93975784e-003 5.79022849e-003
      7.94742908e-003 5.83044998e-003 3.44330491e-003 2.54209922e-003
      -1.95510755e-003 -9.19033866e-003 -7.34610250e-003
      -2.91825365e-003 3.80820740e-004 -9.26681678e-005 1.10772213e-004
      3.58525617e-003 -3.96363856e-003 7.80275077e-005 1.84521347e-003
      4.02653310e-003 5.36639523e-003 4.22616536e-003 4.91386279e-003
      2.15611793e-003 1.25030684e-003 2.48537841e-003 2.56155268e-003
      -2.24899515e-004 -1.25807885e-003 2.43155606e-004 4.15013288e-004
      -2.15427275e-003 -2.07761745e-003 -8.30432691e-004 3.62988049e-003
      6.61226921e-003 5.89588704e-003 1.33588444e-003 -1.79126801e-003
      -3.95030389e-003 -4.82140062e-003 -9.44287051e-003
      -6.65453123e-003 -2.62256549e-003 3.54908709e-003 5.72492694e-003
      4.18646215e-003 2.63961079e-003 2.67146016e-003 2.76618707e-003
      -1.77991213e-004 2.12997198e-003 1.76020875e-003 3.99999321e-003
      7.05467071e-003 9.11326986e-003 6.09967485e-003 1.01784747e-002
      9.91991721e-003 9.47110169e-003 7.10833585e-003 6.54236553e-003
      7.64254900e-003 2.01144163e-003 5.10616042e-003 4.79954481e-003
      -1.08930725e-003 -2.74516316e-003 -2.68674851e-003
      -6.33765431e-003 -7.72969844e-003 -1.12364879e-002
      -8.90821684e-003 -4.26858617e-003 9.27082670e-004 7.68531347e-004
      -2.00628815e-003 -2.00870354e-003 -1.05801097e-003 4.22799494e-003
      3.97510780e-003 1.11611548e-003 4.14690375e-003 9.55694728e-003
      6.44064276e-003 -3.91695183e-003 -4.84200288e-003 -7.20975222e-003
      -8.71026050e-003 -1.82924524e-003 2.17975257e-003 6.05407218e-003
      7.70613970e-003 6.47612801e-003 3.36004910e-003 1.85073284e-003
      3.45366006e-003 -8.79678351e-004 2.66715349e-003 6.98700408e-003
      8.25187191e-003 4.16015275e-003 4.17626603e-003 6.52300799e-003
      7.57216662e-003 6.14243699e-003 4.84741386e-003 2.88869394e-003
      -1.26159249e-003 -1.14775719e-002 -7.77693838e-003
      -5.68121625e-003 -2.73820758e-003 -2.97047663e-003
      -2.03273469e-003 1.16140558e-003 -4.28087451e-003 -2.53750617e-003
      4.14536364e-004 2.18802085e-003 2.47618230e-003 2.79498147e-003
      3.15149175e-003 6.26885958e-005 -5.94182115e-004 -2.76157865e-004
      -6.07250491e-004 -2.55976175e-003 -3.16070905e-003
      -1.08787965e-003 -7.02277524e-004 -1.61782524e-003
      -7.84453645e-004 2.57671881e-003 6.21119607e-003 8.22590943e-003
      5.15239034e-003 5.53989550e-004 -1.81810185e-003 -4.58329264e-003
      -5.58239827e-003 -9.43308789e-003 -7.96459243e-003
      -4.18230053e-003 2.55094352e-003 3.28170136e-003 1.04566920e-003
      8.37567961e-004 3.07264994e-003 5.12388162e-003 -8.44547874e-004
      -2.65769195e-003 4.39150445e-003 6.94329850e-003 9.51813534e-003
      7.79883144e-003 6.70476491e-003 8.24770052e-003 5.78084262e-003
      4.86621307e-003 3.48216109e-003 4.09776112e-003 3.32332309e-003
      -4.07600804e-004 2.77636410e-003 2.82177818e-003 -4.48597129e-003
      -5.65520022e-003 -3.19011859e-003 -4.50465782e-003
      -7.38970796e-003 -8.60060193e-003 -8.51924438e-003
      -5.51611604e-003 2.45441846e-003 1.24828744e-004 -7.30682584e-003
      -4.62743128e-003 -8.30835477e-003 1.80466019e-003 1.51326589e-003
      -1.63663644e-003 1.43966416e-003 8.71365611e-003 5.42515703e-003
      -4.26001940e-003 -5.10851759e-003 -8.16550292e-003
      -5.51561452e-003 4.47149621e-003 6.77653123e-003 7.69812847e-003
      5.34772128e-003 4.62563848e-003 7.05058547e-003 7.92513508e-003
      6.78278133e-003 5.35608036e-003 4.37385915e-003 1.12258047e-002
      1.06467642e-002 7.82370474e-003 5.32503333e-003 7.09585147e-003
      6.06017048e-003 6.38135290e-003 4.36615013e-003 3.06076580e-003
      -8.44635768e-004 -1.23779373e-002 -1.00026373e-002
      -8.88740085e-003 -6.34716218e-003 -4.32059681e-003
      -1.53156905e-003 9.19033657e-004 -4.19731438e-003 -4.24286677e-003
      -2.39260239e-003 -1.33754464e-003 -2.36330132e-004 1.33565345e-005
      6.20915205e-004 -2.05592997e-003 -2.78730295e-003 -1.35682093e-003
      -2.09918362e-003 -4.16806480e-003 -3.93388141e-003
      -2.76736193e-003 -2.54203333e-003 -6.00588566e-004 2.86052888e-003
      4.50729113e-003 8.77414178e-003 9.16706212e-003 6.79981383e-003
      7.90388964e-004 -2.15348066e-003 -4.11610305e-003 -4.60168393e-003
      -7.76568893e-003 -6.77535404e-003 -4.12382279e-003 3.14906763e-004
      2.00414145e-003 3.83773562e-003 1.04433100e-003 2.08448409e-003
      4.34639258e-003 -3.36587778e-003 -3.02119716e-003 2.66513787e-003
      3.51310917e-003 8.42674822e-003 7.08299922e-003 5.20232366e-003
      6.95395935e-003 5.25933318e-003 2.82721361e-003 9.09236667e-004
      -8.03032381e-005 9.10139934e-004 -1.93376571e-003 2.73644319e-003
      -2.88985390e-003 -2.53585191e-003 -4.97960160e-003
      -2.97591323e-003 -3.31332954e-003 -6.42368011e-003
      -6.77214330e-003 -8.01677071e-003 -2.94861221e-003 6.41376595e-004
      -3.73411900e-003 -3.75101133e-003 1.88153319e-003 -8.41244648e-004
      7.67119753e-004 -4.02901368e-003 -3.12746200e-003 2.76434538e-003
      5.25012985e-003 -1.33601984e-003 -7.63191376e-003 -1.08175790e-002
      -9.69358254e-003 -7.78699527e-004 7.91584607e-003 8.64711218e-003
      9.10375454e-003 6.73333043e-003 3.64464638e-003 4.32792027e-003
      5.35639375e-003 3.76425032e-003 9.68104054e-004 2.36106385e-003
      5.82001265e-003 8.37582815e-003 8.66588391e-003 5.78574603e-003
      6.38912385e-003 4.78575937e-003 4.54978319e-003 2.46835803e-003
      1.66840665e-003 -1.92395746e-004 -1.10437376e-002 -1.20419869e-002
      -1.16892494e-002 -7.18742423e-003 -4.39875200e-003
      -9.83528793e-004 1.98758277e-003 -4.47443314e-003 -5.85898804e-003
      -4.44974564e-003 -3.67128267e-003 -3.99133097e-003
      -3.19636287e-003 -3.38713266e-003 -5.83167281e-003
      -6.09449856e-003 -4.54478990e-003 -2.27916474e-003
      -2.83591682e-003 -1.98411499e-003 -2.09826068e-003
      -2.34405696e-003 3.30211828e-004 3.84447235e-003 5.59619674e-003
      9.84383002e-003 1.13002229e-002 8.20701197e-003 3.61745059e-003
      -1.14315667e-003 -2.65284209e-003 -1.42591307e-003
      -5.90851577e-003 -4.73728077e-003 -3.46633210e-003 1.69090717e-003
      2.47331243e-003 4.07648040e-003 2.09068833e-003 2.03243014e-003
      5.58619481e-003 -2.90421862e-003 -2.66223750e-003 1.45148172e-003
      2.12519802e-003 5.81412809e-003 2.39035860e-003 1.96132297e-003
      3.76909319e-003 5.15526067e-003 1.52700022e-003 4.03752597e-003
      5.31848148e-003 4.43361094e-003 1.23247644e-003 4.24085744e-003
      1.32469679e-004 -9.27522965e-003 -1.25756236e-002 -9.90955811e-003
      -8.46943725e-003 -6.75904797e-003 -6.93067256e-003
      -2.77243555e-003 7.51224434e-005 9.78438620e-005 -3.80187575e-003
      -5.78955654e-003 -1.72770699e-003 1.69483712e-003 2.38788337e-003
      -2.53161276e-003 3.08327901e-004 3.85923800e-003 1.26611558e-003
      -2.98795244e-003 -3.44235706e-003 -4.34215460e-003
      -4.13450366e-003 2.93657440e-003 7.35556427e-003 9.10296477e-003
      8.68224539e-003 6.68714708e-003 2.12448090e-003 3.16712051e-003
      3.95435002e-003 2.05338513e-003 -3.16715729e-003 -2.55041523e-003
      1.92514737e-003 2.22084369e-003 2.69454764e-003 5.50504914e-003
      6.40620105e-003 6.48621656e-003 5.82103245e-003 3.72698461e-003
      2.57765898e-003 -3.62994004e-004 -8.91647954e-003 -1.15522621e-002
      -1.00931246e-002 -4.41461103e-003 -2.11093831e-003
      -3.35788995e-004 2.03350536e-003 -5.17819356e-003 -6.08733529e-003
      -5.92638180e-003 -5.86911896e-003 -4.79784189e-003
      -2.49252096e-003 -4.89350175e-003 -7.94425141e-003
      -6.98741432e-003 -2.44756299e-003 -1.14844227e-003 4.65718331e-004
      6.27493486e-004 1.79474137e-003 1.94825596e-004 2.92512379e-003
      3.23380041e-003 4.75320080e-003 8.38608481e-003 8.01531505e-003
      7.21286517e-003 5.21676056e-003 1.52378005e-003 -9.05178429e-004
      -2.56770896e-003 -6.56658364e-003 -7.11910427e-003
      -8.27258732e-003 8.09237361e-004 3.87504930e-003 4.33771592e-003
      2.45365361e-003 1.84273417e-003 4.48902277e-003 -2.14926735e-003
      -1.00599264e-003 3.31934867e-003 3.59727372e-003 6.81967847e-003
      4.42536315e-003 2.05004145e-003 5.55091305e-003 9.18330159e-003
      4.11872379e-003 6.96207210e-003 8.26407131e-003 9.30152275e-003
      7.00365100e-003 1.05957743e-002 4.93105454e-003 -4.28499328e-003
      -9.57491808e-003 -1.07455486e-002 -6.58281241e-003
      -4.33215871e-003 -2.69154087e-003 7.20726838e-003 5.17820707e-003
      3.00079607e-003 -4.16552974e-003 -5.30148670e-003 -3.94817116e-003
      -2.78176041e-003 -3.64039699e-003 -1.11453226e-002
      -7.69098289e-003 -5.24186436e-003 -3.60530894e-003
      -2.90724635e-003 2.70433887e-003 3.75064858e-003 2.27369880e-003
      5.52578317e-003 7.81407300e-003 5.96891250e-003 3.58357467e-003
      2.36401218e-003 -1.61706223e-004 -3.04715708e-004 2.95323157e-003
      1.57834904e-003 -1.86633423e-003 -2.72449246e-003 -1.13742740e-003
      -1.99352088e-003 -1.78673596e-004 4.74958774e-003 5.07127447e-003
      3.83350556e-003 4.57631657e-003 4.25688829e-003 1.99855305e-003
      -1.87043927e-003 -8.38434510e-003 -1.03690019e-002
      -6.20590942e-003 -1.55232230e-003 6.99111333e-005 6.88263797e-004
      2.94115674e-003 -5.79172885e-003 -7.71744410e-003 -6.84167398e-003
      -3.44480434e-003 -3.97058995e-003 -1.23947405e-003
      -1.68001046e-003 -5.63051598e-003 -4.35836287e-003
      -1.12045452e-003 1.97307279e-004 1.06408726e-003 1.31133699e-003
      1.41318131e-003 1.92899990e-003 3.27029754e-003 2.30421079e-003
      2.60364637e-003 5.50160790e-003 5.48858149e-003 6.47660438e-003
      5.43206604e-003 -1.10311690e-003 -3.80738149e-003 -5.50254062e-003
      -8.16207007e-003 -8.58428795e-003 -7.27807451e-003 5.59261721e-003
      7.30317226e-003 8.08403175e-003 5.79131907e-003 4.18676343e-003
      2.43771216e-003 -4.10196465e-003 -3.06686293e-003 2.33524782e-003
      3.70247453e-003 5.42173255e-003 2.69951345e-003 -1.72865996e-003
      -8.94404831e-004 4.81110206e-003 6.65258523e-003 7.59702176e-003
      5.00714919e-003 7.31303217e-003 7.01639662e-003 9.16667283e-003
      1.03708971e-002 2.10758904e-003 -2.46396498e-003 -5.11205103e-003
      -2.50575761e-003 7.15240417e-003 1.21890986e-002 1.18352566e-002
      4.54661902e-003 -1.95766828e-004 -4.21408005e-003 -4.80191363e-003
      -3.06643266e-003 -3.13113094e-003 -9.26316436e-003
      -1.23460758e-002 -1.64032672e-002 -1.00181773e-002
      -8.23738426e-003 -7.68389227e-003 -7.58122653e-004 2.61210720e-003
      3.19548789e-003 5.85690048e-003 9.30243731e-003 7.35835126e-003
      5.52989542e-003 6.90032635e-003 6.16239244e-003 5.17842034e-003
      1.90626970e-003 -1.84976656e-004 -2.29854626e-003 -4.26256377e-003
      -2.23804731e-003 -3.97553109e-003 -1.36599108e-003 3.45295598e-003
      3.59603483e-003 3.27200699e-003 5.23759006e-003 3.95030854e-003
      1.79960555e-003 -2.74367398e-003 -7.33104907e-003 -9.18196421e-003
      -3.57219228e-003 6.33917865e-004 1.53647026e-003 2.75419978e-003
      5.35810133e-003 -4.83129919e-003 -5.92135591e-003 -7.34740729e-003
      -4.82065557e-003 -1.19000243e-003 -6.59225159e-004
      -1.24650344e-003 -4.67126397e-003 -2.94873212e-003 1.34899165e-004
      1.98833225e-003 1.32727495e-003 1.21095427e-003 3.34078888e-003
      5.92892943e-003 6.27136789e-003 5.24473982e-003 4.63505136e-003
      5.23994071e-003 5.49846236e-003 1.74514006e-003 -2.80894642e-003
      -4.35414957e-003 -2.92599062e-003 -3.03485943e-003
      -6.35917811e-003 -6.21233974e-003 -2.17713750e-004 4.65774164e-003
      6.61351252e-003 4.27553477e-003 5.88823901e-003 1.75664155e-003
      -2.89621321e-003 -6.09692512e-003 -6.68192375e-003
      -1.09972223e-003 4.11521038e-003 7.09156040e-003 3.72889801e-003
      -6.34587719e-004 1.81211077e-003 8.42581131e-003 8.93486757e-003
      4.86404542e-003 -5.08862373e-004 8.04726034e-004 6.24952512e-003
      6.87445235e-003 5.94076328e-003 1.10278197e-003 5.02420764e-004
      -3.62352985e-005 3.69425025e-003 1.43966908e-002 1.40319970e-002
      7.72752194e-003 2.20219861e-003 -3.41622508e-003 -3.79888550e-003
      -2.30488973e-003 -1.09692581e-003 -6.67670788e-003
      -7.50461686e-003 -6.40449952e-003 -1.54402284e-002
      -1.61165632e-002 -1.21550690e-002 -1.13874301e-002
      -8.35716445e-003 -5.14634140e-003 -2.14400585e-003 4.64201625e-003
      5.53097483e-003 4.77798469e-003 4.38367529e-003 8.44992325e-003
      8.41149688e-003 7.03667384e-003 4.95326705e-003 1.20445981e-003
      -1.45660900e-003 -3.81075381e-003 -3.98660172e-003
      -4.28606989e-003 4.39727039e-004 1.70201831e-003 3.00115952e-003
      4.67178551e-003 6.58312486e-003 5.76217379e-003 1.83194899e-003
      -2.97822291e-003 -7.68207107e-003 -9.74930916e-003
      -2.37146183e-003 1.32191775e-003 3.26624676e-003 4.00384236e-003
      7.71491183e-003 -1.63921202e-003 -3.81837180e-003 -5.22692548e-003
      -4.01832862e-003 -1.31126994e-003 1.30988265e-004 4.88033314e-004
      -2.04149960e-003 7.42896053e-004 3.29205371e-003 5.07202139e-003
      4.90972353e-003 4.84360475e-003 5.44110499e-003 7.19629601e-003
      6.85088802e-003 6.87944284e-003 6.72168238e-003 4.75469418e-003
      5.65750990e-004 -2.30375165e-003 -3.66704096e-003 -2.94916495e-003
      -2.31764163e-003 -2.53839279e-003 -6.23186119e-003
      -3.73547478e-003 6.05702633e-004 1.94255193e-003 3.58529459e-003
      2.23569153e-003 2.56897043e-003 -3.74013232e-003 -7.08177174e-003
      -6.83121989e-003 -6.46293815e-003 -3.71798663e-003 4.41545062e-003
      8.11826624e-003 1.11096038e-003 -1.02506950e-003 1.75149878e-003
      6.92557963e-003 6.27897447e-003 3.54338763e-003 -4.53709811e-003
      -3.18514835e-003 1.37268729e-003 3.25117027e-003 3.66711547e-003
      -2.02169013e-003 1.77582947e-003 5.15330955e-003 8.77670571e-003
      1.12114968e-002 1.00109614e-002 6.04749192e-003 8.58981919e-004
      -2.13222622e-004 -2.68746167e-003 -4.89990506e-003
      -4.14061826e-003 -1.25557417e-003 -4.87585366e-003
      -1.11628212e-002 -1.66446380e-002 -1.58230755e-002
      -1.41148614e-002 -1.19207539e-002 -1.03275590e-002
      -7.89097324e-003 -7.52288848e-003 -2.57916003e-003 1.41518377e-003
      1.05621014e-003 -1.53578643e-004 3.42864846e-003 3.36980540e-003
      3.86090204e-003 4.16141842e-003 5.23894210e-004 -8.48965079e-004
      -1.86373969e-003 -2.95246742e-003 -3.02251894e-003 2.13176641e-003
      1.39170315e-003 1.75556436e-003 5.73342899e-003 5.68635436e-003
      4.89471806e-003 2.52326438e-003 -2.25838949e-003 -7.25017209e-003
      -9.07640811e-003 1.79024180e-004 3.98624036e-003 5.10056131e-003
      5.90031175e-003 8.29051528e-003 1.44946983e-003 -9.22543753e-004
      -2.14697444e-003 -1.87758543e-003 -9.44225321e-005 2.66316207e-003
      2.96958070e-003 4.40359465e-004 3.63658252e-003 4.68840869e-003
      8.13779328e-003 7.04475027e-003 5.75903570e-003 6.25076145e-003
      8.31663236e-003 8.12705327e-003 9.02037229e-003 8.46941303e-003
      1.46342849e-003 -2.49314704e-004 -2.22812267e-003 -3.43964994e-003
